{"type":"LSTM","options":{"inputSize":33,"inputRange":33,"hiddenLayers":[20,20],"outputSize":33,"decayRate":0.999,"smoothEps":1e-8,"regc":0.000001,"clipval":5,"maxPredictionLength":100,"dataFormatter":{"indexTable":{"!":0,"@":1,"#":2,"$":3,"%":4,"^":5," ":6,"t":7,"e":8,"b":9,"a":10,"d":11,"r":12,"k":13,"h":14,"o":15,"n":16,"g":17,"s":18,"c":19,"p":20,"x":21,"u":22,"m":23,"q":24,"y":25,"i":26,"v":27,",":28,"l":29,"stop-input":30,"start-output":31,"unrecognized":32},"characterTable":{"0":"!","1":"@","2":"#","3":"$","4":"%","5":"^","6":" ","7":"t","8":"e","9":"b","10":"a","11":"d","12":"r","13":"k","14":"h","15":"o","16":"n","17":"g","18":"s","19":"c","20":"p","21":"x","22":"u","23":"m","24":"q","25":"y","26":"i","27":"v","28":",","29":"l","30":null,"31":null,"32":null},"values":[{"input":"!@#$%^ te","output":"bad"},{"input":"!@#$%^ rat te","output":"bad"},{"input":"!@#$%^ khong sach se","output":"bad"},{"input":"sach se","output":"good"},{"input":"phong sach se","output":"good"},{"input":"!@#$%^ xau","output":"bad"},{"input":"!@#$%^ kem","output":"bad"},{"input":"!@#$%^ khong tot","output":"bad"},{"input":"!@#$%^ kha te","output":"bad"},{"input":"!@#$%^ kem","output":"bad"},{"input":"!@#$%^  rat kem","output":"bad"},{"input":"!@#$%^ qua te","output":"bad"},{"input":"!@#$%^ tot","output":"good"},{"input":"!@#$%^ rat tot","output":"good"},{"input":"!@#$%^ khong kem","output":"good"},{"input":"!@#$%^ qua tot","output":"good"},{"input":"!@#$%^ kha tot","output":"good"},{"input":"!@#$%^ rat ung y","output":"good"},{"input":"!@#$%^ rat nhiet tinh","output":"good"},{"input":"!@#$%^ tuyet voi","output":"good"},{"input":"!@#$%^ rat chuyen nghiep","output":"good"},{"input":"!@#$%^ khong chuyen nghiep","output":"bad"},{"input":"rat tuyet voi","output":"good"},{"input":"!@#$%^ chua chuyen nghiep","output":"bad"},{"input":" phong yen tinh sach se","output":"good"},{"input":"phong ban, on ao","output":"bad"},{"input":"nhan vien vien than thien","output":"good"},{"input":"do dung da cu","output":"bad"},{"input":"dich vu tuyet voi","output":"good"},{"input":"khong chat luong","output":"bad"},{"input":"noi that xau","output":"good"},{"input":"phuc vu kem","output":"bad"},{"input":"giuong thoai mai","output":"good"},{"input":"nhieu mui hoi","output":"bad"}],"characters":["!","@","#","$","%","^"," ","t","e","b","a","d","r","k","h","o","n","g","s","c","p","x","u","m","q","y","i","v",",","l","stop-input","start-output","unrecognized"],"specialIndexes":[30,31,32]},"activation":"relu"},"trainOpts":{"iterations":2000,"errorThresh":0.001,"log":true,"logPeriod":5,"learningRate":0.01,"callbackPeriod":10,"timeout":"Infinity","momentum":0.1,"layers":[15,15]},"input":{"rows":34,"columns":33,"weights":[-1.1332389116287231,-0.10781825333833694,1.2654521465301514,-1.5252641439437866,-3.6308677196502686,-0.3463386297225952,-2.3159589767456055,0.23276086151599884,-1.3527063131332397,0.48710504174232483,-0.7797265648841858,0.379680335521698,-1.0657135248184204,-1.8457545042037964,0.6817626357078552,-0.5666843056678772,-1.2660335302352905,-1.3007185459136963,0.6617864966392517,-1.8298778533935547,1.5819225311279297,2.159844398498535,0.3957529067993164,-1.1208680868148804,0.16316622495651245,1.4184855222702026,-1.0665358304977417,-0.578632652759552,2.183828592300415,0.199788898229599,1.403698444366455,2.4210526943206787,-1.555935263633728,3.376577854156494,-0.8997169733047485,0.5300804376602173,-2.8515100479125977,-1.6956934928894043,0.06160850450396538,-1.572725772857666,-3.148085355758667,-3.257880687713623,-1.5091848373413086,2.656233549118042,2.9202992916107178,-0.21511252224445343,0.02935647778213024,-0.2613353729248047,-1.254501223564148,-3.062539577484131,4.058061122894287,2.253659725189209,-0.4358539283275604,2.9414758682250977,-0.7375752329826355,2.7026820182800293,0.8139634132385254,1.1274666786193848,0.7363092303276062,2.7150280475616455,-3.4970600605010986,-0.28561100363731384,0.06429685652256012,-2.589122772216797,4.307848930358887,-2.0054450035095215,1.8831944465637207,-2.4339370727539062,-1.7970443964004517,3.5519661903381348,-0.26393771171569824,-1.4169692993164062,-1.354224681854248,2.018078565597534,0.644573986530304,-0.93006432056427,1.0973613262176514,2.868741273880005,1.5264307260513306,-0.615995466709137,-1.4782516956329346,-3.115485191345215,2.9614040851593018,2.063403606414795,-0.027535591274499893,-0.24413006007671356,-0.2723166048526764,3.062363386154175,-3.7416467666625977,0.6118390560150146,-0.30884304642677307,1.481939435005188,-1.536165714263916,-1.7780382633209229,1.7002143859863281,0.3705875277519226,-3.4850258827209473,-1.6618825197219849,1.1926970481872559,-1.7222661972045898,0.6462241411209106,1.7347291707992554,-0.8303595781326294,-2.4502577781677246,0.5514190196990967,-0.43932050466537476,-1.6701321601867676,-3.2001876831054688,-1.6824798583984375,5.128218173980713,0.33433109521865845,-1.6717122793197632,0.2916882634162903,0.22510413825511932,-0.06620508432388306,0.9628393054008484,-1.1714670658111572,-1.652132511138916,-3.6016132831573486,-0.4778112471103668,2.0682380199432373,0.12124688178300858,2.057258129119873,2.198200225830078,5.559218883514404,0.4934001564979553,0.6243323087692261,0.31624752283096313,-1.8198233842849731,0.5063989162445068,3.02219295501709,-1.2203707695007324,0.01601313427090645,-2.1032726764678955,0.27722376585006714,-2.5080649852752686,-2.5528769493103027,0.1109972819685936,-0.7231219410896301,0.5067694783210754,4.637359619140625,-2.6854474544525146,-2.656219244003296,-1.2432136535644531,0.37607118487358093,4.198845386505127,0.2633483409881592,-0.8754675388336182,-0.9664976000785828,0.04525650292634964,1.7629101276397705,-1.4895871877670288,-1.718625783920288,1.8416668176651,-3.1508100032806396,-3.5859436988830566,0.9480406641960144,-3.1274003982543945,-1.4523429870605469,-0.2053261399269104,0.7671099901199341,0.7150778770446777,1.814833402633667,-5.506147861480713,-2.9763736724853516,-1.788972020149231,3.7616360187530518,1.1468126773834229,0.5171457529067993,0.21328124403953552,3.875006914138794,-0.2738810181617737,-0.24539801478385925,-5.631182670593262,-1.7066879272460938,3.643038749694824,2.1151211261749268,-2.674844741821289,-1.2835813760757446,2.6832005977630615,-4.6599836349487305,-7.541653156280518,5.459689140319824,-3.8880531787872314,0.37247705459594727,3.516244411468506,-3.9837112426757812,-5.821699142456055,3.837393283843994,3.826939344406128,4.4156494140625,-0.015192664228379726,-2.0841338634490967,-1.0109302997589111,0.718646764755249,-1.7957117557525635,-3.6470420360565186,-3.4561095237731934,0.5686646103858948,-6.373013496398926,0.7771817445755005,-4.550028324127197,-0.3256831169128418,1.4343894720077515,-5.374144554138184,-1.9951072931289673,0.1466941237449646,-0.7330028414726257,0.4616261124610901,-1.569026231765747,-1.5986278057098389,1.8714473247528076,-1.487874984741211,1.0732133388519287,-5.977150917053223,-2.559283494949341,-0.0818091481924057,2.1465065479278564,3.764183282852173,1.705532431602478,4.945693492889404,-0.12454184144735336,-1.9481446743011475,-2.2630300521850586,0.26915329694747925,-2.167790174484253,-2.7224230766296387,-4.84172248840332,2.814779281616211,0.3003338873386383,-2.2192068099975586,2.479447603225708,0.140939399600029,-0.7365937232971191,1.86253821849823,-2.221290111541748,0.9454945921897888,-1.794211506843567,0.394534707069397,0.50869220495224,1.1455860137939453,0.5847264528274536,1.1216470003128052,-1.5375325679779053,0.3669505715370178,0.6523492336273193,-1.5028655529022217,0.627226710319519,-1.2776761054992676,-0.07398828119039536,0.3534213900566101,2.2536113262176514,0.7262457013130188,-0.08628707379102707,0.2668105661869049,1.8218616247177124,1.4575436115264893,0.7334330081939697,0.7818447947502136,0.16464519500732422,0.43121349811553955,-0.19729484617710114,0.3722298741340637,1.851641058921814,-0.5902812480926514,-0.47851136326789856,4.0291218757629395,2.140836715698242,3.112929105758667,0.2512914538383484,4.491934299468994,3.7618634700775146,1.7267966270446777,2.1233794689178467,-2.344132900238037,-1.963279128074646,2.4092166423797607,-0.5601913332939148,-2.3920795917510986,3.5974814891815186,-2.6023521423339844,0.07173466682434082,-2.2426254749298096,-2.214766025543213,-3.784085273742676,-4.902442932128906,0.8744308352470398,-1.3804606199264526,-1.898851990699768,-1.374287724494934,-0.6132556200027466,0.3266448974609375,-2.2899465560913086,-0.571392834186554,1.3962886333465576,-3.717146635055542,-0.6792510747909546,-1.367562174797058,3.520855665206909,0.8321335315704346,2.2174432277679443,-0.6661030054092407,-0.45371243357658386,1.5282251834869385,-1.7621630430221558,-1.0747116804122925,-1.3624554872512817,2.135096788406372,1.6871262788772583,-0.9942267537117004,-2.975919246673584,-0.8223057985305786,0.027492286637425423,0.9872737526893616,0.6517226099967957,-1.3057469129562378,-2.4894185066223145,-0.3282832205295563,-0.31237339973449707,-2.1035661697387695,1.630335807800293,3.7464287281036377,7.768345355987549,0.5153594017028809,-1.613074779510498,0.8745349049568176,-3.4615261554718018,2.5925636291503906,2.9671242237091064,-2.9565389156341553,-0.9934287071228027,-2.706279754638672,-2.3151583671569824,1.30172598361969,1.1284633874893188,-2.3539037704467773,-2.5592074394226074,1.6370924711227417,-1.1231224536895752,-2.9609408378601074,0.11085375398397446,0.8042243123054504,1.949110984802246,0.5050106048583984,-1.3956892490386963,0.5851225852966309,-1.9928728342056274,0.15062382817268372,-0.41115209460258484,6.01190185546875,4.0771307945251465,-0.43924370408058167,0.2651316225528717,0.631980299949646,-2.754086494445801,0.16024823486804962,2.8101139068603516,-3.550793409347534,-0.9651213884353638,-2.774693012237549,-1.3516494035720825,2.151555061340332,2.270480155944824,-2.8280296325683594,4.1365251541137695,0.19761405885219574,-2.4537148475646973,-0.03691336512565613,0.5384558439254761,1.424769639968872,-2.874730110168457,-3.132880210876465,-0.2191980481147766,-0.8311014771461487,-3.4280879497528076,1.5205811262130737,0.4486028850078583,2.132734537124634,3.500734329223633,-4.167230129241943,-1.5769225358963013,-2.294605255126953,2.1548283100128174,0.985000491142273,-5.605410575866699,-0.4194253087043762,2.266972064971924,1.1162912845611572,1.3955979347229004,0.5277317762374878,-1.1532220840454102,-2.0026257038116455,1.1581143140792847,-2.329911947250366,0.8000296950340271,-0.7737221717834473,0.0757136195898056,-0.8577513098716736,-0.31059685349464417,-0.23001733422279358,-0.3883943259716034,1.7692512273788452,1.6688066720962524,1.9739054441452026,1.2860678434371948,2.167210102081299,-1.0191365480422974,-4.029550552368164,-0.9219635725021362,0.39496052265167236,-0.070475734770298,1.0076929330825806,-1.489303708076477,-1.3883168697357178,0.11548739671707153,-0.8076148629188538,1.756062388420105,-2.3964645862579346,-1.6486845016479492,-1.7049038410186768,-0.78916335105896,-1.6778364181518555,-0.4943130314350128,-0.8364980220794678,-2.2313764095306396,2.293123722076416,-1.4993213415145874,0.4031500816345215,0.4999329149723053,7.909669876098633,-2.1240720748901367,-9.205350875854492,1.0048435926437378,-3.637904167175293,-1.6936640739440918,4.229290008544922,0.8055280447006226,2.6500868797302246,-6.193569660186768,-7.373226642608643,14.223461151123047,-1.6591755151748657,-0.2768179476261139,-3.518404483795166,-8.590975761413574,-1.256777286529541,-0.16890472173690796,8.237588882446289,4.289348125457764,1.1469887495040894,4.758255481719971,3.213432550430298,0.8566027879714966,-4.04083776473999,6.799874305725098,5.453210353851318,-0.007127712015062571,-8.477690696716309,6.033563613891602,5.054746150970459,-0.7786938548088074,0.8720387816429138,4.172736644744873,-5.634697914123535,2.571467161178589,1.2548059225082397,0.2566579282283783,0.45260089635849,-0.7506718039512634,3.5014758110046387,4.711656093597412,-0.7673773765563965,-2.5621049404144287,-0.49039193987846375,1.0081816911697388,1.6494683027267456,0.03634341433644295,-2.4537293910980225,-1.2971733808517456,2.5652377605438232,5.430754661560059,3.292469024658203,3.886955738067627,3.9866368770599365,5.045559883117676,-7.472690105438232,-2.9191558361053467,-4.165823936462402,-1.3351858854293823,-3.595815420150757,-5.06249475479126,3.3631479740142822,-1.5581934452056885,-1.619648814201355,3.4623939990997314,2.0036110877990723,-1.582263708114624,-0.5970993041992188,1.1360013484954834,-0.17339497804641724,-2.625247001647949,2.5282177925109863,3.324035167694092,3.0618700981140137,-2.7971014976501465,-3.8948442935943604,-0.8966537714004517,1.9763373136520386,0.6870360374450684,-3.56010365486145,0.8845832347869873,0.6052870154380798,-0.034966010600328445,2.8212578296661377,-0.025492746382951736,0.32878613471984863,4.701956748962402,1.8863012790679932,-3.8968985080718994,-2.5397274494171143,-2.8988566398620605,0.16721460223197937,-0.09440005570650101,-1.0184327363967896,0.4535355865955353,-0.5452456474304199,-1.2123818397521973,1.2544738054275513,-3.0853543281555176,1.8402020931243896,0.9741341471672058,-3.4544284343719482,0.06392141431570053,1.1808885335922241,-0.016406260430812836,-3.9618797302246094,1.1083780527114868,1.7792609930038452,-0.9877244830131531,-2.2571160793304443,-0.9843882322311401,1.0902141332626343,1.644742727279663,2.4581379890441895,1.806712031364441,-1.095068335533142,-0.0978657677769661,-2.9891774654388428,-4.490213871002197,-0.35150349140167236,1.7830051183700562,0.10266081988811493,0.8867508172988892,-1.7083086967468262,-1.9076958894729614,3.584291696548462,1.7550673484802246,-0.8631353974342346,3.6916887760162354,-1.440182089805603,-3.2704639434814453,0.00350384833291173,-0.7526541352272034,-3.818615674972534,0.9330576658248901,0.09251900017261505,1.3245174884796143,1.800731897354126,0.1203620508313179,-0.6841337084770203,1.0666804313659668,-2.276660442352295,5.610279083251953,0.008964444510638714,1.914048194885254,-1.9685426950454712,-3.339379072189331,-1.916533350944519,1.491936206817627,6.415567398071289,3.2695116996765137,1.6127586364746094,-2.809826374053955,-0.3928145468235016,-1.795700192451477,-2.385140895843506,3.821930408477783,4.820908069610596,-3.018322467803955,1.2764290571212769,1.9080150127410889,-1.898277997970581,1.786505937576294,3.9921305179595947,-1.1204547882080078,3.0621984004974365,1.579239845275879,-3.313197374343872,0.5538498163223267,4.199117183685303,-0.5733523964881897,-5.319718837738037,-1.646623134613037,0.8434888124465942,1.608330488204956,1.6239187717437744,0.0436636283993721,3.9640984535217285,2.6096131801605225,0.7766510248184204,-1.7370787858963013,3.1420726776123047,-0.6742486357688904,-0.372738242149353,-3.9440996646881104,-2.2127292156219482,-2.6985924243927,-4.238640785217285,7.849020481109619,-2.0823252201080322,2.478381872177124,1.0416878461837769,-0.5939832925796509,0.4028899669647217,-0.2179720550775528,-2.0730161666870117,-3.1974427700042725,-2.102053642272949,-5.183422088623047,-1.7143974304199219,12.05139446258545,3.9642434120178223,-2.377063035964966,5.797718048095703,13.490917205810547,3.7922842502593994,-4.414910793304443,-0.18527470529079437,6.087906837463379,5.145425796508789,0.883978545665741,-5.442614555358887,-6.7818074226379395,-3.2160120010375977,2.925546407699585,-2.3700485229492188,6.994931221008301,3.0498363971710205,-1.617163896560669,2.478943347930908,4.129397392272949,-2.445713758468628,0.16713832318782806,6.73542594909668,-6.79010534286499,0.0663711205124855,3.2110488414764404,3.4751601219177246,0.3883953094482422,6.5736985206604,0.2325255423784256,0.48535871505737305,-5.42799711227417,-6.324458122253418,-0.6118869781494141,-3.4303884506225586,0.08706612884998322,-2.5337939262390137,-3.1198019981384277,-4.709771633148193,-0.6267396807670593,-2.894324779510498,-3.245882511138916,-0.7420141100883484,1.0896530151367188,-1.6317058801651,-0.017449824139475822,-3.1892077922821045,-5.863610744476318,-0.6452611088752747,-2.398214817047119,3.8073337078094482,2.3444344997406006,5.940778732299805,0.9713806509971619,3.315316915512085,7.034108638763428,4.5997138023376465,0.6033726930618286,-6.957685947418213,7.320194721221924,-2.176072120666504,-0.21064887940883636,1.2333825826644897,1.1274514198303223,-2.976909637451172,0.9162180423736572,-0.13296791911125183,-8.127315521240234,-0.863447368144989,2.056699752807617,-5.161086559295654,-6.045074939727783,5.547869682312012,0.10986946523189545,2.5163636207580566,-8.755969047546387,-1.7510323524475098,2.800708293914795,4.147002220153809,-5.932145595550537,-6.37798547744751,-3.0667552947998047,-1.2922585010528564,3.1647894382476807,5.617393970489502,6.918856143951416,-3.9154226779937744,5.727206230163574,2.0686488151550293,2.7391016483306885,-1.7468876838684082,-1.1237480640411377,8.905179977416992,5.442930698394775,1.900399088859558,-4.724549293518066,3.6825432777404785,-10.366095542907715,15.69810962677002,-3.3846206665039062,-12.035056114196777,11.229562759399414,10.088902473449707,5.426348686218262,-12.641741752624512,5.595980644226074,2.171940565109253,11.413561820983887,1.8369029760360718,-8.55090045928955,-3.1649060249328613,-4.738503456115723,-4.30902624130249,-6.989078044891357,11.428827285766602,11.267020225524902,-5.55267858505249,1.595940351486206,5.152961254119873,-0.6337786316871643,-4.388723373413086,10.042596817016602,-8.226394653320312,-6.350167274475098,5.051942348480225,0.5803172588348389,0.006912773475050926,15.426265716552734,4.106515884399414,-4.763890743255615,-1.434965968132019,2.883653163909912,1.1620571613311768,0.02755589969456196,-1.923096776008606,1.0649162530899048,-2.8284502029418945,-3.5028162002563477,3.0783073902130127,2.580326795578003,-1.039013385772705,-3.720130205154419,-2.681473970413208,-2.300715208053589,-2.7611782550811768,4.3461480140686035,-6.008623123168945,6.317699432373047,-2.583885431289673,-1.5912760496139526,-2.8982794284820557,7.482700347900391,1.6060419082641602,0.15054643154144287,4.121823787689209,-0.3940676748752594,-1.1168429851531982,-5.785914897918701,2.836416006088257,-0.7284928560256958,3.075929641723633,3.6988632678985596,1.5552372932434082,5.7542290687561035,-0.2795833945274353,7.641957759857178,0.15261153876781464,7.966312885284424,5.108417987823486,10.331401824951172,-3.4598960876464844,0.6682718992233276,4.187767505645752,8.094971656799316,-1.107082724571228,2.581939697265625,2.346562385559082,12.864693641662598,7.013184070587158,-0.15149982273578644,-7.941511631011963,-4.497885227203369,6.016608238220215,1.1981207132339478,3.8332557678222656,-1.1115423440933228,-5.4284348487854,1.4756605625152588,4.381101131439209,-5.75233793258667,-0.9839383363723755,1.8727216720581055,-5.9863409996032715,-3.6705808639526367,-1.0988706350326538,2.583275318145752,-6.1166157722473145,-6.4298176765441895,-5.1583757400512695,-0.45341917872428894,-8.482110023498535,-3.205376148223877,-0.9214318990707397,8.313329696655273,6.3605756759643555,-6.03995418548584,-8.05522632598877,-0.6153843998908997,-0.24688224494457245,0.34875425696372986,-12.687702178955078,-5.906896114349365,-7.772089958190918,2.676281452178955,-7.363814353942871,-1.6750909090042114,-7.346116065979004,1.430315613746643,3.1539111137390137,11.331221580505371,3.9991507530212402,6.787744045257568,2.0722742080688477,-3.6286697387695312,-6.939019203186035,-0.9807487726211548,3.178959608078003,0.5670133829116821,-2.592541456222534,-3.284738063812256,-1.2570539712905884,-0.024025121703743935,-7.409718036651611,0.8448237776756287,-2.3773603439331055,-3.686566114425659,-7.462567329406738,-0.8777430653572083,-3.441344738006592,5.726494789123535,-1.0842641592025757,-2.168484926223755,-2.1775176525115967,-6.709852695465088,-2.519803047180176,1.8757520914077759,9.905131340026855,2.627958059310913,-0.3484598696231842,9.82521915435791,2.819002628326416,-0.641767144203186,0.08012354373931885,11.126755714416504,-6.093544960021973,-6.633569717407227,-0.3095933496952057,9.371649742126465,-0.2536954879760742,1.9126489162445068,3.34108829498291,-1.3297395706176758,-3.5887584686279297,3.961101770401001,6.2453718185424805,2.1436245441436768,4.974937915802002,3.9449970722198486,-1.6118131875991821,-2.5102286338806152,-1.6285390853881836,4.2764892578125,6.297452926635742,-1.885256052017212,-1.9889787435531616,-6.91100549697876,-1.733081579208374,0.7249654531478882,-0.009763804264366627,3.406742572784424,1.4819437265396118,-5.374331474304199,0.29617840051651,2.7441864013671875,-1.7607461214065552,3.4865946769714355,8.813222885131836,-6.275473117828369,-6.051146507263184,-0.91550213098526,3.7639918327331543,1.7824480533599854,7.194371700286865,-3.645282506942749,-2.46480393409729,-2.698356866836548,-1.7523176670074463,-15.786747932434082,0.5861340761184692,0.38133931159973145,-3.1553165912628174,8.76166820526123,-4.784748077392578,-6.052474498748779,1.0476430654525757,-2.011478900909424,5.990026950836182,-0.9788609147071838,1.0865490436553955,-5.45057487487793,9.083561897277832,9.705286026000977,-2.1376841068267822,-0.49180519580841064,3.7278378009796143,-6.137762069702148,-3.8739638328552246,-3.5439555644989014,-1.9335527420043945,0.906731128692627,2.663377285003662,4.306567668914795,11.811100959777832,-8.172346115112305,-0.5563474297523499,-3.3267204761505127,-3.7189486026763916,-1.8484058380126953,1.12004816532135,16.877552032470703,7.5148420333862305,-5.534825801849365,10.563127517700195,5.909441947937012,4.78272008895874,-3.095848321914673,6.675400733947754,14.883329391479492,1.406732439994812,-8.441191673278809,-3.539910316467285,3.2181949615478516,4.045041561126709,-5.688218116760254,-19.573139190673828,14.004388809204102,-2.3546862602233887,-2.2897441387176514,-0.24222011864185333,13.93984603881836,-8.841384887695312,-2.169614315032959,9.996646881103516,-9.292463302612305,5.645837306976318,-19.253087997436523,19.416030883789062,-7.881342887878418,11.839694023132324,11.042102813720703,-17.22083854675293,-14.060476303100586,23.801292419433594,3.5539140701293945,-8.606095314025879,16.695016860961914,18.932186126708984,2.5829081535339355,-12.448347091674805,-10.346246719360352,11.982770919799805,-4.736252307891846,-1.016128420829773,-12.3883056640625,-5.226490020751953,9.088550567626953,-1.408888816833496,0.6455702185630798,5.856402397155762,12.425629615783691,-3.063129186630249,-5.91750431060791,-10.503029823303223,-16.02139663696289,0.16920456290245056,6.089736461639404,-6.057247161865234,3.539350748062134,14.54601764678955,-15.724842071533203,1.232045292854309,19.660789489746094,1.806990146636963,-2.3463616371154785,-1.2330278158187866,1.4279767274856567,-1.3631597757339478,-3.1102676391601562,-1.564134120941162,3.0462183952331543,-0.27528098225593567,0.6074519157409668,1.4693794250488281,-3.47855281829834,-1.9488487243652344,-2.7126758098602295,-3.143584728240967,-1.0363985300064087,-1.5031003952026367,-4.60555362701416,-4.440131187438965,0.5200490951538086,-1.0143461227416992,1.0767279863357544,-0.7478107213973999,1.7324974536895752,-1.7194316387176514,-0.8452200293540955,0.4747644066810608,0.639159619808197,-0.3919719159603119,-2.1838016510009766,-0.10866294801235199,-0.835607647895813,2.340083360671997,0.33389076590538025,-4.108766555786133,0.6463342308998108,-0.9624919891357422,-2.306427001953125,0.7203191518783569,2.0171871185302734,1.4133020639419556,-0.9418716430664062,-3.136411428451538,-2.7741849422454834,-0.5630801916122437,-1.479136347770691,-1.5073403120040894,-0.5640662908554077,0.6450443863868713,-1.388875126838684,3.4353392124176025,-0.9328629374504089,-0.17751827836036682,1.6563310623168945,0.7387226819992065,2.8563153743743896,-1.255405068397522,-2.0128936767578125,-0.9600691795349121,0.4641951620578766,-2.0611612796783447,0.30096474289894104,-0.17512938380241394,1.2755930423736572,0.3908570408821106,0.35260868072509766,0.04875414818525314,0.07130163908004761,-0.052367910742759705,0.003451896132901311,0.02834940142929554,0.009919456206262112,-0.035491105169057846,0.0037755994126200676,0.006260768510401249,0.02007952146232128,-0.005746006034314632,0.04525800794363022,0.0536046177148819,-0.06674706190824509,-0.0558612197637558,-0.033162180334329605,-0.07090087234973907,-0.025570277124643326,0.01752101443707943,0.0658118799328804,-0.04657639190554619,-0.01996651664376259,0.06807877123355865,0.007006778847426176,-0.06794583052396774,-0.02915951795876026,-0.03685292601585388,0.043009258806705475,-0.04702521115541458,-0.01651780866086483,0.06411777436733246,-0.006882411893457174,0.06957829743623734]},"hiddenLayers":[{"inputMatrix":{"rows":20,"columns":33,"weights":[-0.7944719791412354,1.8906534910202026,0.540945827960968,0.4806724786758423,-0.2002323418855667,-1.5516630411148071,-3.980574369430542,-1.098121166229248,-2.2330965995788574,-0.5791271328926086,1.183502197265625,-1.4321730136871338,0.07511508464813232,-3.23305082321167,-0.3015703856945038,0.03032098151743412,1.9774357080459595,-0.7846377491950989,-1.8678234815597534,-0.6823568940162659,-0.9611355662345886,0.43716663122177124,-0.578500509262085,3.540968894958496,1.9428462982177734,4.163155555725098,-1.172431230545044,0.5772378444671631,1.9716453552246094,0.28529608249664307,-0.774348258972168,2.7935702800750732,-2.062431573867798,1.4731600284576416,-0.8636690974235535,-0.2466486096382141,2.499828815460205,2.2412102222442627,-0.5580139756202698,2.4295530319213867,2.123053550720215,-0.20883819460868835,0.9487358331680298,0.006314025726169348,0.3808625340461731,0.593972384929657,-1.5112178325653076,-2.0376322269439697,0.5370210409164429,0.5193791389465332,0.7917649745941162,0.30428048968315125,-0.12430404126644135,0.15426550805568695,-0.5497993230819702,2.177860736846924,-2.086940288543701,-2.1244313716888428,-0.966555118560791,0.34017208218574524,-0.9421626925468445,-2.1364071369171143,-0.7190616726875305,2.1104848384857178,-0.12862436473369598,2.550565719604492,-0.9746509790420532,1.972908854484558,0.6222265362739563,-1.281124472618103,-0.46849730610847473,0.15735122561454773,0.7731412053108215,-0.8827071785926819,-0.09016287326812744,0.8344578146934509,-0.6376261711120605,-2.038001537322998,1.1280838251113892,-0.3195818364620209,1.608718752861023,0.4871688783168793,0.2164665162563324,-2.238978624343872,-0.8911958932876587,0.05562454089522362,-1.6239395141601562,-1.0592007637023926,0.04185599088668823,0.6545372009277344,0.8095480799674988,0.04760339483618736,1.426497220993042,1.0672144889831543,-0.9407103061676025,0.20590995252132416,1.2371046543121338,-1.3380565643310547,0.1357988715171814,-0.714323878288269,-2.0046634674072266,0.6021708846092224,-0.0817490741610527,0.4151105582714081,-0.44708865880966187,0.6386902332305908,-0.17899921536445618,2.2884609699249268,-1.6731616258621216,-0.6294773817062378,0.9234850406646729,0.7406424283981323,-1.2763526439666748,-0.7960042953491211,1.3863939046859741,0.37799379229545593,3.3275063037872314,-1.1715670824050903,-0.7905724048614502,-4.457651615142822,0.49754148721694946,-0.4919823408126831,0.9888578653335571,-0.6851122379302979,-1.9370661973953247,0.9735953211784363,2.2544076442718506,2.2301981449127197,-0.5245230793952942,0.9026714563369751,-3.1619346141815186,-0.45188745856285095,1.903321385383606,-1.2897331714630127,-0.34565290808677673,0.5051936507225037,0.05782896280288696,-1.3858962059020996,0.036301180720329285,2.209603786468506,0.5013228058815002,-1.887946605682373,0.9230377674102783,1.2080985307693481,0.4932336211204529,-0.9093624949455261,-0.9454339742660522,-0.26028117537498474,0.1729767769575119,0.5918803215026855,0.7015067934989929,1.443221092224121,0.822772741317749,4.925336837768555,0.48335132002830505,1.7525391578674316,-0.6780283451080322,0.8412593603134155,0.503829300403595,-1.6025210618972778,-0.6396986246109009,-1.6491252183914185,-0.7242643237113953,2.156130313873291,0.7358919978141785,-0.17050209641456604,1.105597972869873,-0.4411177933216095,-0.04050939902663231,-3.1787331104278564,1.3415946960449219,-1.5956648588180542,-0.2082594633102417,-1.4374457597732544,0.8900750875473022,2.3167431354522705,1.2762943506240845,-2.8998615741729736,-0.11250312626361847,1.0165982246398926,0.7187951803207397,-1.4313079118728638,0.15640400350093842,-0.14855895936489105,-0.2025650143623352,1.63064444065094,-0.23996444046497345,-2.072463035583496,-0.6920301914215088,0.43128517270088196,1.6709723472595215,-0.46698248386383057,-0.5679658055305481,0.059422340244054794,-0.214152529835701,-2.098781108856201,1.6473267078399658,0.7016946077346802,0.3484236001968384,0.7793846130371094,1.3216665983200073,-1.3877201080322266,0.1421695351600647,1.4970592260360718,2.976386785507202,0.16875766217708588,0.06206986680626869,-2.1506128311157227,-1.7947866916656494,0.7367563843727112,0.279899001121521,2.454775094985962,-0.7528598308563232,0.6120539903640747,-2.246912956237793,2.055614471435547,2.8987040519714355,2.444268226623535,2.820169448852539,-1.67191481590271,1.0329365730285645,-0.5244500041007996,-1.660064458847046,-0.704932451248169,-0.22537606954574585,-1.9786512851715088,-3.073423147201538,2.7859597206115723,-2.3880412578582764,1.2275718450546265,-0.9561863541603088,1.8715689182281494,0.41132527589797974,-1.1108436584472656,-0.16250503063201904,-2.8703880310058594,-0.36098018288612366,-3.062852621078491,-0.7712548971176147,-0.11233759671449661,-0.42263147234916687,2.100414991378784,-0.3061477541923523,-2.4923925399780273,0.16200578212738037,-1.4377459287643433,-1.9124727249145508,0.1625339239835739,-2.3812243938446045,-1.2728002071380615,-0.17680944502353668,-0.7174811363220215,2.66941499710083,-0.7857050895690918,3.287308692932129,2.1970975399017334,0.2427029311656952,0.6550209522247314,0.5238155722618103,-0.7345357537269592,-1.9937251806259155,1.9419348239898682,-0.7347891926765442,-0.35275453329086304,-0.3644440472126007,-3.606691360473633,-0.12822100520133972,0.10760681331157684,-1.4821648597717285,-1.18549382686615,-1.443977952003479,0.6938014030456543,0.44297465682029724,-2.949155330657959,-0.5297396183013916,1.426281213760376,0.5856462717056274,-0.6259411573410034,-0.04446842893958092,-1.7231568098068237,-1.4768517017364502,2.193434476852417,0.09958916157484055,1.8016266822814941,2.194268226623535,2.0066847801208496,3.013810634613037,0.7917494177818298,-1.928034782409668,-0.1855650693178177,1.196529507637024,-0.5267287492752075,0.4740621745586395,-0.3404700756072998,1.9342297315597534,0.12539690732955933,1.855104684829712,-3.9027645587921143,1.9884055852890015,0.6659647822380066,-1.6915754079818726,0.5101211071014404,0.5734294056892395,0.895712673664093,0.7545536756515503,-1.446678876876831,0.6312845945358276,-0.3821631968021393,-2.8730628490448,-0.7759639024734497,-1.1828038692474365,3.1321628093719482,0.05129227042198181,-0.17670755088329315,-1.419123649597168,-1.3134957551956177,-3.201336622238159,-0.17098449170589447,-2.4501290321350098,-1.3436565399169922,0.611701250076294,3.077641010284424,0.2311229258775711,-0.5810964107513428,0.0891035869717598,-0.23551297187805176,1.5228320360183716,1.34548819065094,-0.8732935190200806,-2.0732667446136475,1.468117356300354,-1.8069130182266235,0.9378153085708618,0.9165006279945374,-1.3814243078231812,1.7127577066421509,0.3273603022098541,4.228423118591309,1.1795037984848022,0.06707342714071274,-0.7562037706375122,0.13576921820640564,-2.9471917152404785,-0.8645192980766296,0.6736201643943787,-1.6048527956008911,0.9093325734138489,-2.5340495109558105,-0.6466067433357239,-2.3631086349487305,0.5463992357254028,1.8384222984313965,0.11221182346343994,-0.9118661284446716,-0.2704533338546753,0.08615431934595108,-2.6129448413848877,-2.0312769412994385,-0.46483588218688965,0.34281545877456665,2.643763780593872,-1.25967538356781,0.4795004427433014,0.6681442260742188,-0.3077836334705353,-1.8802069425582886,-0.793923556804657,-1.998521089553833,-0.7861799001693726,-1.7818526029586792,-1.9359384775161743,-2.4522716999053955,-1.4719518423080444,2.065749406814575,0.7139386534690857,-1.5699735879898071,-0.7576456069946289,1.5884103775024414,-2.1771790981292725,-0.26426276564598083,-0.9890590906143188,0.3868574798107147,1.2912662029266357,-1.6040222644805908,1.8679420948028564,-0.8472082018852234,-0.8455791473388672,1.5701932907104492,1.9061501026153564,1.4815385341644287,1.0171371698379517,0.8536912202835083,-2.1437180042266846,0.4570789337158203,1.1949383020401,0.37653836607933044,-1.2466204166412354,0.42576369643211365,-1.0019344091415405,-0.3097634017467499,0.8627369403839111,-1.6437557935714722,1.932007074356079,1.1565392017364502,1.6645300388336182,-1.3310368061065674,-4.34817361831665,1.0835644006729126,2.73549747467041,1.177404761314392,-0.6124522686004639,-0.19660232961177826,2.0579135417938232,1.9090183973312378,1.8053910732269287,-0.7587738633155823,-0.10703252255916595,1.5813422203063965,1.5674024820327759,-1.6485977172851562,-2.3632428646087646,-1.1506731510162354,0.3527067303657532,-2.107365131378174,1.4763621091842651,0.7442731261253357,1.3655073642730713,-1.6224359273910522,1.165178894996643,0.18798883259296417,-0.7420619130134583,0.9875490069389343,1.5746127367019653,-0.7216402888298035,-1.0570306777954102,1.9517160654067993,4.310276985168457,0.6421371102333069,0.04332009702920914,-1.9442147016525269,-0.34167489409446716,1.97699773311615,0.06658423691987991,-2.503171443939209,0.48424655199050903,-0.4582102596759796,-0.5180339813232422,0.5966434478759766,-1.1570446491241455,0.39247897267341614,0.7540208697319031,-0.01752185821533203,-3.413987159729004,-3.6921114921569824,-1.5494449138641357,-2.0248844623565674,-1.0260869264602661,-1.9688454866409302,0.5458434820175171,0.5873978734016418,-0.44251036643981934,-0.29499107599258423,0.5782858729362488,0.013637582771480083,-1.0259262323379517,0.532254159450531,0.06158258765935898,-1.121027946472168,2.19600510597229,4.6623311042785645,1.515310287475586,-3.213939666748047,-1.187387228012085,-1.3870954513549805,2.9928972721099854,-1.2306376695632935,0.23609691858291626,1.2077975273132324,1.3430869579315186,-0.3820391893386841,0.1769305169582367,-0.37567344307899475,-0.31527140736579895,3.082038164138794,0.20050066709518433,-0.14417369663715363,-2.0988667011260986,-2.1452372074127197,0.19485795497894287,0.8229065537452698,-0.212722510099411,0.7713732719421387,-0.2735697627067566,-1.5528061389923096,0.7998771071434021,0.4536624252796173,0.5299774408340454,-1.6954501867294312,2.4565813541412354,-0.16430361568927765,-0.3068912625312805,-0.5204117894172668,2.760472536087036,0.665719747543335,2.334862232208252,-1.3462775945663452,1.2963556051254272,1.1207058429718018,1.5382174253463745,0.4252626895904541,0.172126904129982,2.3727285861968994,-1.283157467842102,1.441328763961792,1.1693848371505737,1.07355535030365,1.3996942043304443,-0.305826336145401,0.12871304154396057,-2.7495200634002686,-0.7773140668869019,1.3030916452407837,0.08250977098941803,0.5060110092163086,2.4702930450439453,-0.11683988571166992,0.8942665457725525,4.582602500915527,1.7294260263442993,-0.9617179036140442,-1.313642144203186,3.09268856048584,-0.6704800128936768,-1.119022250175476,-1.2210803031921387,2.2867543697357178,1.2089369297027588,-2.004655599594116,-0.709762692451477,1.276233196258545,-0.15302081406116486,-1.1493256092071533,-1.4094464778900146,-2.6568443775177,0.0812823548913002,0.7793989777565002,-0.30731162428855896,1.5106513500213623,0.9797425270080566,3.147840976715088,-0.24462659657001495,0.4273870885372162,-0.6357597708702087,0.8231207132339478,1.8871784210205078,-1.055534839630127,-1.7151715755462646,-2.346038818359375,0.23733650147914886,0.16273126006126404,1.9139134883880615,-0.9363810420036316,1.3506215810775757,0.28369224071502686,-2.7767508029937744,-0.6862386465072632,1.3651394844055176,-2.9144957065582275,-2.7157962322235107,-2.8871443271636963,-0.6868056058883667,1.897355079650879,-0.9448996782302856,-1.6595367193222046,1.5349807739257812,3.079599142074585,0.4217378497123718,0.2826763689517975,-0.953009307384491,-0.7126241326332092,-2.6656203269958496,0.20324920117855072,1.125405192375183,-0.44806647300720215,0.2783467173576355,2.402787923812866,0.19749411940574646,-0.7241354584693909,0.5785000920295715,0.18312202394008636,-0.5444105267524719,1.7751972675323486,0.7819753289222717,-3.78619122505188,-0.9686794877052307,0.7993316054344177,-0.3867588937282562,-2.1556437015533447,-0.965708315372467,2.0502071380615234,-0.6350358128547668,-2.6176719665527344,-0.8148339986801147,0.4198167622089386,0.6782387495040894,-0.38352563977241516,-1.0107078552246094,0.9351930022239685,3.1853177547454834,-0.32678836584091187,-0.8403384685516357,0.39823001623153687,-0.5249396562576294,-2.1148977279663086,0.8374385833740234,-1.858185887336731,-1.5231462717056274,0.017771653831005096,2.044492244720459,-0.6574476957321167,-1.797919750213623,0.2946110963821411,0.09855588525533676,3.031789541244507,-2.3285090923309326,-0.47199344635009766,-2.663647413253784,-0.5739911198616028,-1.310727834701538,-0.012023529037833214,0.11111372709274292,-0.6561087369918823,-1.1423988342285156,0.32058075070381165,-1.9296096563339233,-1.2453041076660156,-2.2574925422668457,-1.4418591260910034,0.6951094269752502,0.6875258088111877,-0.7837329506874084,-1.1258500814437866,0.3372499346733093,-1.1414055824279785,1.6668146848678589,1.7447580099105835,1.7142372131347656,2.5993261337280273,0.39756476879119873,2.9987633228302,-0.613976776599884,-0.40980851650238037,1.0626150369644165,0.18276982009410858,-2.2912399768829346,0.3831968903541565,0.8090223670005798,-0.23568253219127655,1.7965103387832642,-0.597526490688324]},"inputHidden":{"rows":20,"columns":20,"weights":[-0.7044435739517212,0.3472170829772949,0.5463969111442566,-0.6758641600608826,0.703914999961853,-0.15920044481754303,0.3985027074813843,-0.16594557464122772,-0.5485422611236572,-0.13378512859344482,-2.624178886413574,-1.435715913772583,-0.6678683757781982,-2.474087953567505,-0.9631311297416687,-1.1640452146530151,3.1417393684387207,-0.1873365342617035,2.020657539367676,0.6497901082038879,-1.390773057937622,-1.507967472076416,1.2492752075195312,0.009877090342342854,-0.6409432888031006,1.4971369504928589,-0.8386873602867126,-0.7890410423278809,0.8293288350105286,1.4186171293258667,2.3856678009033203,-0.6538079380989075,0.5613062977790833,0.6544085741043091,1.2082659006118774,0.5732765793800354,-1.241417407989502,-0.7678024172782898,-2.151907205581665,1.9391998052597046,2.9306416511535645,1.8417490720748901,-3.611619472503662,-0.4687896966934204,0.6188783049583435,2.1194167137145996,1.0449174642562866,-7.482223033905029,-3.8548500537872314,1.73321533203125,-3.3685834407806396,5.1620378494262695,-1.684510588645935,-1.7739611864089966,0.6401413083076477,-3.958425283432007,2.3082659244537354,-5.232159614562988,-0.675317108631134,-2.1846559047698975,3.3614816665649414,1.7793508768081665,-0.23217914998531342,-0.8362590670585632,-1.523310899734497,-0.06517084687948227,-2.1456716060638428,-0.8912980556488037,-1.9883651733398438,-0.11144126206636429,-1.152082920074463,1.2329050302505493,2.7543394565582275,0.8936050534248352,-2.9864554405212402,0.8432467579841614,-1.083667516708374,-0.011992398649454117,1.6803221702575684,-0.2916788160800934,-0.5916094183921814,-0.10107889026403427,0.06348683685064316,0.17980994284152985,0.90285325050354,0.6276252865791321,-0.7044675946235657,0.15628375113010406,-0.10826980322599411,0.20741721987724304,1.4133477210998535,0.8454567193984985,0.48274877667427063,0.10874781012535095,-2.1408112049102783,1.3859362602233887,-1.4330641031265259,-0.3445546627044678,1.1441526412963867,-0.7874224781990051,1.8759123086929321,-0.09677089005708694,-0.4132104814052582,-0.8815405368804932,-0.33826586604118347,0.368353009223938,0.34808483719825745,2.192824125289917,0.27999889850616455,0.33979591727256775,0.4322320818901062,0.2884150445461273,2.7989323139190674,-0.24895328283309937,-2.7041640281677246,-2.1087167263031006,-0.015298111364245415,-0.5872584581375122,-2.44612193107605,-1.688416838645935,-1.38434636592865,1.7289986610412598,-0.8537664413452148,0.4717152714729309,-0.5830487608909607,-0.28640908002853394,-0.8994601368904114,2.1992053985595703,2.9014906883239746,3.567732095718384,0.17553798854351044,-0.4479565918445587,0.15043491125106812,0.9500631093978882,-1.9907726049423218,-0.24073974788188934,-1.6999764442443848,2.14448881149292,-0.27447858452796936,1.3351351022720337,0.18024665117263794,1.9401018619537354,0.41758453845977783,-2.229578971862793,3.1308913230895996,0.4808737337589264,0.2599244713783264,-1.0286556482315063,-1.5382561683654785,2.794102430343628,-0.90677809715271,1.2650090456008911,1.301356315612793,-1.686627745628357,-3.5672738552093506,-1.0639729499816895,1.8244365453720093,-1.4531607627868652,1.7016899585723877,-4.505549430847168,-1.7308768033981323,0.4902089834213257,0.7486254572868347,-1.8494505882263184,0.20014487206935883,-0.16523733735084534,1.532246470451355,0.6143931150436401,2.6411640644073486,0.017776211723685265,0.6987771391868591,-0.2864878177642822,-1.4721732139587402,-1.0114657878875732,-1.0873955488204956,-1.7394462823867798,0.5232284665107727,0.46145278215408325,0.660471498966217,0.01564863882958889,-1.654569387435913,0.1226789802312851,-2.110106945037842,-0.7658455967903137,1.6143025159835815,-1.6053515672683716,1.9684836864471436,-2.2092723846435547,-0.48435619473457336,-1.123159408569336,-0.2742098867893219,1.1430505514144897,-0.09279788285493851,0.5459164381027222,-1.276505947113037,-2.780712366104126,3.068344831466675,-1.0478154420852661,1.0758864879608154,0.5080017447471619,1.7868168354034424,-0.054493363946676254,0.7894856929779053,0.008254705928266048,-1.4431060552597046,1.4519659280776978,-2.7193336486816406,1.1058576107025146,0.9775160551071167,-0.5735913515090942,-1.2109575271606445,2.7302615642547607,1.068892002105713,2.179184675216675,2.527534246444702,0.32519179582595825,0.06696929782629013,-2.417142868041992,-6.367008209228516,0.3307712972164154,-1.5001733303070068,3.1129910945892334,0.4097706377506256,-0.5072603821754456,1.639397382736206,-2.105611801147461,1.440211296081543,-1.0954962968826294,1.927751898765564,-2.2262988090515137,1.0364763736724854,5.401190280914307,3.0969808101654053,-2.0148961544036865,-1.6796754598617554,-4.177483558654785,2.112807035446167,0.8215006589889526,-1.998765468597412,1.0781004428863525,1.110405445098877,-0.76247239112854,1.759947657585144,-0.10631155967712402,-2.000877857208252,-2.5298588275909424,-0.40467187762260437,3.2514848709106445,2.9595561027526855,-0.8425549268722534,0.30280524492263794,1.7663824558258057,0.13770967721939087,-1.3970023393630981,-0.06311888992786407,1.0624802112579346,-1.1925612688064575,0.32483670115470886,-0.6886407136917114,2.363570213317871,-0.12745872139930725,0.26055189967155457,0.9712945818901062,-1.2531979084014893,0.11779817938804626,1.2869703769683838,-0.374352365732193,0.3979555666446686,-1.9620884656906128,0.8190015554428101,2.948570966720581,0.9182124137878418,1.8551440238952637,-2.05368709564209,-2.5447232723236084,-0.18550734221935272,-0.1496804654598236,-0.3509703278541565,1.235208511352539,-1.7253522872924805,1.9704145193099976,2.673497438430786,2.6099910736083984,-0.9992774724960327,2.9566433429718018,1.0423439741134644,0.0015023284358903766,0.8952105641365051,4.25881290435791,5.0008721351623535,-0.054660554975271225,-0.032308969646692276,2.8730287551879883,-0.5638375282287598,-1.6820094585418701,0.4142340421676636,1.6056456565856934,-4.651479244232178,0.23272135853767395,-1.5230692625045776,4.944491863250732,0.32206740975379944,0.3280688226222992,-0.08788768202066422,0.5201116800308228,-3.0787367820739746,3.019763946533203,-0.022967929020524025,-0.1562984734773636,-0.4151614308357239,0.927923858165741,-1.5378717184066772,0.23669420182704926,-0.9158081412315369,1.3567613363265991,-1.8546605110168457,-0.009732154197990894,0.3368014991283417,-1.5333828926086426,2.3965976238250732,-0.8375439643859863,0.06721381843090057,-1.4973361492156982,0.49188071489334106,-1.0528240203857422,1.0214452743530273,-1.343874454498291,-0.47008371353149414,0.1065254807472229,0.6511110067367554,2.5122463703155518,1.3149728775024414,0.06884150207042694,1.4899247884750366,0.7254509925842285,0.5483192801475525,-2.6931581497192383,-0.41691964864730835,0.4748794436454773,1.0507746934890747,-0.968689501285553,-0.6525698304176331,1.6531805992126465,0.4234810471534729,-1.4195841550827026,0.7004027962684631,-1.7605583667755127,1.1110025644302368,1.8035144805908203,0.70831698179245,-0.400715172290802,0.7688643932342529,-2.0914559364318848,-0.583179771900177,1.0566445589065552,1.7024085521697998,-2.3037569522857666,0.701583206653595,0.6342176795005798,-1.406482458114624,-0.1719246208667755,-1.932777762413025,-3.504446506500244,-1.4908527135849,0.3312806785106659,-0.402067631483078,1.786508321762085,0.7627245783805847,2.3950421810150146,1.1068952083587646,-0.3559565544128418,-1.7557220458984375,-0.021106120198965073,-1.6024481058120728,-0.09122487157583237,-2.007021188735962,0.8327054977416992,0.8284411430358887,1.5923430919647217,-0.44529783725738525,1.7008388042449951,0.22547729313373566,-4.056182861328125,-2.9751431941986084,5.285245895385742,1.639391303062439,2.1648738384246826,-1.7328407764434814,-0.3011792302131653,4.377018928527832,0.9183538556098938,1.5378634929656982,-3.970954656600952,-1.8916853666305542,-2.3375680446624756,-1.740013837814331,3.8731417655944824,1.437843680381775,0.6483076810836792,-0.5875107645988464]},"inputBias":{"rows":20,"columns":1,"weights":[0.3457335829734802,-0.5179393291473389,-2.769390344619751,-0.16905374825000763,-0.22506876289844513,0.7624854445457458,-0.47390016913414,0.8157612681388855,0.3184507191181183,-0.02982359752058983,-1.1712974309921265,-2.4856598377227783,-0.647216260433197,-0.34668946266174316,-0.8059818148612976,-0.3918088972568512,-0.9644802212715149,-0.5486235618591309,-0.642925500869751,0.9122228026390076]},"forgetMatrix":{"rows":20,"columns":33,"weights":[1.0592882633209229,-1.4720790386199951,-0.4740300178527832,1.6373372077941895,0.9842392206192017,0.5771569013595581,2.2042124271392822,3.0105884075164795,2.3173739910125732,-0.5585072636604309,-2.1622064113616943,1.4198380708694458,0.7613418102264404,-0.41314762830734253,0.061072446405887604,-0.5599537491798401,0.19360971450805664,0.2913312315940857,0.48323729634284973,0.12185271829366684,0.8873538970947266,-0.3884430229663849,0.11573034524917603,0.08441616594791412,-2.0112247467041016,-0.12153076380491257,-0.4363522529602051,-0.5749552845954895,-0.6021946668624878,0.4412834048271179,-0.04650586098432541,0.20569682121276855,0.6890301704406738,2.273277997970581,-2.0143520832061768,-0.7233301401138306,1.7918850183486938,0.555275022983551,-1.4056165218353271,0.788341224193573,2.0566885471343994,0.5403730273246765,-1.4573191404342651,-0.5792377591133118,1.3643605709075928,0.8890805244445801,-0.845140814781189,-2.178112506866455,-1.0352363586425781,-1.0906401872634888,0.0039383405819535255,-0.3632274568080902,0.7425372004508972,0.5335422158241272,0.12921665608882904,0.24474547803401947,0.4020812511444092,-1.220339059829712,-0.04276934266090393,1.3385851383209229,0.12248934060335159,-1.057862639427185,-2.647280216217041,0.982306182384491,-0.7184330224990845,1.0064078569412231,-1.9024275541305542,1.2708450555801392,-0.7358443737030029,-0.6186882853507996,0.13431419432163239,-1.323266625404358,-1.4391605854034424,-2.5821123123168945,0.4302734136581421,1.6855632066726685,1.9420738220214844,0.15228991210460663,-0.3935135304927826,1.331605076789856,1.242782473564148,-0.24205078184604645,3.6487059593200684,-0.776043713092804,-0.14025139808654785,-0.34966418147087097,-1.7100379467010498,1.2535474300384521,-0.0770774632692337,-0.061750657856464386,2.4709508419036865,0.7171738743782043,-0.31834080815315247,0.7373249530792236,1.3326880931854248,-0.773753821849823,1.3696858882904053,-0.19528910517692566,-1.3947640657424927,-1.5529472827911377,0.9261435270309448,1.8538669347763062,-1.9254076480865479,0.29149389266967773,1.1977626085281372,0.595197319984436,-1.1586694717407227,0.6996138691902161,1.0131168365478516,0.6858875155448914,0.09619364887475967,1.1563140153884888,-0.9349287748336792,0.7075672745704651,2.51210618019104,0.9554190635681152,1.7715070247650146,0.9690347909927368,-2.422936201095581,-2.1977357864379883,0.5753985047340393,0.42498326301574707,0.26420849561691284,1.3790664672851562,-1.4696769714355469,-3.0568289756774902,1.5448070764541626,0.5832144618034363,2.1507568359375,-0.7239041328430176,1.095483660697937,-1.8250391483306885,1.4473742246627808,-2.0543336868286133,-1.766347885131836,0.8552263975143433,0.6692724823951721,-1.0988212823867798,-0.17384016513824463,1.2182533740997314,1.2822540998458862,-1.0227484703063965,-0.11246336996555328,1.570252776145935,0.03284025937318802,-0.06946992129087448,-2.103440523147583,-0.08836926519870758,-0.21557439863681793,2.4570462703704834,0.10225161164999008,1.4714751243591309,-1.7197333574295044,0.5885492563247681,-0.8267786502838135,0.3776456415653229,-0.8968576192855835,-2.273784637451172,1.8873426914215088,0.22317184507846832,0.3837319314479828,-1.1298002004623413,-0.4461900591850281,-2.397432565689087,0.7668149471282959,0.2843233346939087,-0.5244128108024597,-1.6632723808288574,0.04148875176906586,-1.528843641281128,1.7130507230758667,-0.9755473732948303,-0.01751115918159485,-0.35501629114151,-0.7653894424438477,-0.25652316212654114,2.0656251907348633,0.7413063645362854,3.387495756149292,-1.9154514074325562,-1.4494372606277466,0.1633402556180954,1.7508492469787598,2.0210514068603516,2.204578399658203,0.4977114498615265,1.4747540950775146,-1.1634862422943115,-1.9543395042419434,0.6078217625617981,-1.086954116821289,1.4305262565612793,0.10234811156988144,0.5088810324668884,0.4410438537597656,-0.592164158821106,0.27736619114875793,1.1996656656265259,-0.012526650913059711,0.0702797994017601,1.2311230897903442,-1.2413398027420044,0.14844109117984772,3.736494541168213,-2.0394060611724854,-2.766389846801758,-0.39480045437812805,2.2302188873291016,0.22129042446613312,-0.5049984455108643,-0.39118528366088867,2.58943510055542,1.6108685731887817,-1.043810248374939,-1.339194416999817,-0.45517972111701965,2.6972596645355225,1.2734922170639038,1.5422663688659668,-0.5750705599784851,0.3143121302127838,-1.066599726676941,1.8241183757781982,-0.9493904709815979,-0.4852558970451355,0.42603641748428345,1.2387418746948242,0.8931883573532104,-0.4517224133014679,0.12711507081985474,0.22017516195774078,0.9861418604850769,1.6195735931396484,-0.011369038373231888,4.231088161468506,2.402632474899292,1.0926299095153809,1.3350694179534912,0.17168894410133362,2.2159206867218018,1.6989679336547852,-0.29528772830963135,3.172715663909912,-0.7425333857536316,-0.32471567392349243,-1.5099009275436401,-0.8556907773017883,1.8602137565612793,0.7383177876472473,2.0155694484710693,-1.3442684412002563,0.13031364977359772,-0.4944309890270233,-2.939361095428467,-1.7883917093276978,0.7823348045349121,0.052480097860097885,-0.05406782403588295,0.183183491230011,1.1925528049468994,3.1333420276641846,-0.24027709662914276,-0.757636547088623,-0.11489570885896683,-1.424626111984253,0.5714104771614075,2.4892148971557617,-1.0723141431808472,-0.3921184241771698,1.2399946451187134,1.467864990234375,0.4185437262058258,0.4456358253955841,-1.103908896446228,-0.972563624382019,-1.687929391860962,-1.551000952720642,-1.436386227607727,0.9660181403160095,2.074262857437134,1.012241244316101,-1.859150767326355,-0.4082321226596832,-1.4434916973114014,0.41531527042388916,-0.5146003365516663,0.558068573474884,0.4845399260520935,-1.9087063074111938,1.8337929248809814,-3.629831314086914,-1.8570894002914429,-0.7959629893302917,-0.1464584320783615,0.9822106957435608,1.5766716003417969,-1.7266929149627686,-0.4425559937953949,1.556265115737915,-0.5062270164489746,1.0481247901916504,0.011995106004178524,0.2304011583328247,-1.3178162574768066,-0.9522424936294556,1.6907098293304443,1.2023463249206543,-1.3298710584640503,1.0605491399765015,0.6870476007461548,1.3184467554092407,0.7812709212303162,-0.8832685351371765,3.9605188369750977,-0.1747351735830307,1.7938041687011719,0.5086234211921692,-0.8193219900131226,2.1008310317993164,0.7675455808639526,-1.4710028171539307,1.3190721273422241,0.5651583075523376,0.2664545178413391,1.6484041213989258,1.5077519416809082,0.8398982882499695,0.7967681288719177,-1.3581660985946655,0.73045814037323,-2.9336841106414795,0.6269313097000122,1.2275797128677368,-1.9057286977767944,0.4417964220046997,1.5833293199539185,0.17441391944885254,-0.9055565595626831,0.32902440428733826,2.399669647216797,1.2899169921875,-0.7743421792984009,-1.3151291608810425,1.0610629320144653,1.7255514860153198,1.355944037437439,0.3701964020729065,2.035122871398926,-0.7515007257461548,-2.819343090057373,-2.1414549350738525,-1.41426682472229,-0.8020350933074951,-1.3401212692260742,1.017659306526184,-2.0703752040863037,-1.9496138095855713,0.9384859204292297,0.6610525846481323,2.0152533054351807,-0.27106836438179016,-2.0611748695373535,-2.9089529514312744,-1.1024887561798096,-0.5639706254005432,-0.36314696073532104,-0.6550451517105103,1.1698057651519775,-0.9715746641159058,0.052484482526779175,-0.9945415258407593,0.10498975962400436,-0.5577760338783264,-0.773177444934845,-0.4462924599647522,1.8849457502365112,-0.0044997623190283775,0.09653396904468536,0.7246567010879517,1.4660658836364746,1.0921571254730225,-1.262023687362671,-0.38747066259384155,-1.5695616006851196,0.6594629287719727,1.3173201084136963,0.006322894245386124,0.5655770301818848,-0.7476722598075867,0.42660579085350037,1.685995101928711,0.8287180662155151,-1.042110562324524,1.212729573249817,-1.4742761850357056,-1.056944727897644,0.8429893851280212,0.36287081241607666,-0.9386115670204163,-0.6675984263420105,1.9540975093841553,-2.2227859497070312,1.1214548349380493,0.5770022869110107,0.5026994347572327,-0.8490117192268372,-1.0145227909088135,0.01538366824388504,1.9303560256958008,0.1344011425971985,0.503753662109375,2.181406259536743,2.2076416015625,-0.32190632820129395,0.584692656993866,-2.192965030670166,-0.05149294063448906,1.5101321935653687,1.8137822151184082,-0.2555190920829773,-1.3360745906829834,-1.3286980390548706,-0.17400342226028442,3.2255325317382812,1.0359861850738525,0.12924137711524963,-1.5974550247192383,0.36257204413414,-0.41330471634864807,2.9928171634674072,-2.171107053756714,-1.3153436183929443,1.3992940187454224,0.21415498852729797,-1.3970812559127808,0.24296706914901733,1.3305044174194336,0.6499220132827759,-1.3311288356781006,0.5864497423171997,2.574127435684204,0.08058997243642807,0.04004067927598953,-0.5954805612564087,0.4511246681213379,0.4170531928539276,2.0418965816497803,0.8175523281097412,2.3815557956695557,-0.15495377779006958,2.474085569381714,-0.6257792711257935,0.6256453990936279,-1.902151107788086,-0.5285511612892151,2.178697109222412,0.016367819160223007,-0.8043386936187744,-0.8078361749649048,-1.72147798538208,0.25443947315216064,1.9753552675247192,-2.0006871223449707,2.203427314758301,1.5433266162872314,-1.1902018785476685,0.8683304190635681,-1.6598528623580933,0.08130256831645966,-1.4814451932907104,-1.9605010747909546,-2.0411107540130615,-0.47875335812568665,-0.40564286708831787,0.6814720630645752,-2.018224000930786,0.42503270506858826,1.9857628345489502,-0.17498257756233215,2.9213504791259766,-1.624084711074829,-0.680277943611145,-1.1734050512313843,-0.5959578156471252,1.1976771354675293,1.639401912689209,0.27945736050605774,0.7174016833305359,-0.656961977481842,-0.8040103912353516,2.507394552230835,-1.1433868408203125,1.4120203256607056,0.4606374502182007,-3.985229015350342,-1.4459741115570068,1.38021981716156,-0.599464476108551,-1.9659863710403442,-1.3154878616333008,-1.7236323356628418,-2.0370442867279053,-1.8277504444122314,-2.1824560165405273,-0.6333609819412231,1.692651391029358,-1.8483970165252686,-1.9511178731918335,-0.8364450335502625,0.775963544845581,-0.6284950971603394,-2.1086599826812744,0.3293645977973938,-1.1047457456588745,-0.7407321929931641,-2.2102718353271484,0.028747476637363434,-2.3011653423309326,0.8987608551979065,1.7748223543167114,-0.5681483745574951,-0.48730888962745667,1.3570009469985962,1.3004487752914429,-0.9353036880493164,-0.17285852134227753,-1.5548535585403442,-1.1556113958358765,1.7802491188049316,1.073169469833374,-2.4184815883636475,3.0005617141723633,-0.21711459755897522,-1.8730274438858032,1.0426098108291626,1.9899098873138428,2.9560790061950684,0.5007706880569458,0.501234769821167,2.3215091228485107,0.16760152578353882,-0.23638546466827393,-0.5293891429901123,-2.5870778560638428,1.6056609153747559,0.7085298895835876,0.4312658905982971,0.8890047073364258,1.0087552070617676,-0.49964189529418945,-3.123551845550537,0.49097636342048645,0.9249135851860046,-0.7205951809883118,0.612561047077179,1.0166382789611816,-0.05943532660603523,0.06337417662143707,-1.5785528421401978,-1.3679956197738647,1.9394687414169312,-0.6248080730438232,0.8479936718940735,0.05181753262877464,-0.5629256367683411,-0.7273270487785339,1.2088804244995117,-0.3342866897583008,-0.23938597738742828,0.15733245015144348,0.7460463047027588,0.1768338978290558,2.8966915607452393,-0.43213558197021484,0.5064942240715027,1.2930824756622314,-1.052661657333374,1.1386878490447998,0.8002365231513977,0.03880597651004791,-1.1526905298233032,-0.8880534172058105,0.6541197896003723,-1.1456674337387085,0.8186846971511841,1.0277684926986694,-0.1893157958984375,-0.7089195847511292,0.0580560602247715,1.5631136894226074,1.5819147825241089,-0.17113347351551056,-0.7726944088935852,-0.7437151074409485,-1.657939076423645,0.024015503004193306,1.3087087869644165,-0.6758947372436523,1.132674217224121,-1.1115385293960571,0.6860219240188599,-0.6270456314086914,-1.1416224241256714,-1.3099690675735474,0.2867625951766968,-0.6246114373207092,1.139229655265808,-2.683361530303955,0.4355337917804718,2.0659897327423096,-0.22095957398414612,1.4606847763061523,-2.1402766704559326,-0.24786552786827087,-0.3894534707069397,-0.551473081111908,0.06289491057395935,2.169682025909424,0.8606263399124146,0.6596977114677429,-1.3026056289672852,0.586746096611023,1.1692701578140259,-1.0212392807006836,-1.2716610431671143,0.24647104740142822,-1.1759897470474243,-0.37726467847824097,3.7316718101501465,-1.5683766603469849,-0.07846289128065109,-0.970182478427887,3.952585458755493,0.7238619923591614,-1.5796327590942383,0.9935585260391235,1.8631279468536377,-0.6390827298164368,0.61033034324646,-2.2460408210754395,2.0188236236572266,1.9609586000442505,-0.8133816123008728,0.9901012778282166,-3.3047149181365967,0.9360175132751465,-0.5754414200782776,-0.1083446741104126,-0.9747231602668762,-0.8411720991134644,-0.8070600032806396,0.355268657207489,1.305094599723816,-0.6569498777389526,1.0353904962539673,-0.17323733866214752,-0.04179118573665619,1.8393123149871826,0.01701587624847889,-0.5368530750274658]},"forgetHidden":{"rows":20,"columns":20,"weights":[0.7058044672012329,3.493342638015747,-2.88547682762146,-2.5129446983337402,0.9614772796630859,0.6091488599777222,2.3089022636413574,0.08444380760192871,-1.149067759513855,0.04468166083097458,-1.6550719738006592,0.4197278916835785,0.37812215089797974,-5.198530673980713,-0.7240018844604492,-0.04067632555961609,1.6008129119873047,-1.3461569547653198,2.583521604537964,-3.5062594413757324,-0.009023413993418217,1.197312831878662,-0.030130660161376,-1.7811602354049683,1.4992703199386597,-0.39888474345207214,-0.1877293735742569,0.8284152746200562,-0.4252675771713257,0.8760225772857666,-1.0135587453842163,-0.0715208649635315,1.3001242876052856,-0.8285390138626099,-1.3444546461105347,-0.9551635980606079,1.0336663722991943,-0.7646701335906982,0.39507392048835754,-0.10968814790248871,1.0498443841934204,-0.808759331703186,-2.4241809844970703,-0.6072913408279419,0.1845695972442627,-0.9580947756767273,1.0759549140930176,-1.783340573310852,0.7703464031219482,0.08336124569177628,-0.2896778881549835,-1.5082316398620605,-0.7345688939094543,-0.02971566468477249,2.4977681636810303,0.07783357799053192,-0.09957677125930786,0.8157079815864563,-2.170773983001709,1.6829986572265625,1.0725362300872803,-0.23694103956222534,-1.3865498304367065,0.8098639249801636,0.6750071048736572,-1.4377318620681763,1.4207879304885864,-1.5770198106765747,-0.32430627942085266,0.8688564896583557,1.2718855142593384,-0.5423328280448914,0.7626072764396667,-1.0527986288070679,-0.9054386615753174,-0.7349046468734741,0.8381283283233643,-0.23393304646015167,0.0023990522604435682,0.003318318398669362,0.37560731172561646,0.4508973956108093,-0.9465695023536682,0.20264479517936707,0.5944244265556335,-0.12706436216831207,0.7320981621742249,-0.7733415365219116,1.6294355392456055,0.247053861618042,-0.6776960492134094,-0.316353440284729,0.33504047989845276,1.0892846584320068,0.6983063220977783,-0.14264851808547974,-0.7263498902320862,-0.006038001738488674,-0.2764994204044342,1.2776755094528198,-2.1022350788116455,-0.18410013616085052,0.7462400794029236,-0.30520808696746826,0.09387072175741196,-0.0897328108549118,0.13737376034259796,-2.747821569442749,-0.702173113822937,0.6477795243263245,-0.5822262763977051,0.7625961303710938,0.33163565397262573,-0.6095877885818481,-0.8623354434967041,-2.0510177612304688,2.0816471576690674,-0.4119132161140442,-1.0866533517837524,-1.6333038806915283,1.7592344284057617,-0.2245788872241974,0.6907326579093933,-0.7437711954116821,-0.6887924671173096,-0.8786935210227966,1.362837553024292,0.5889426469802856,-2.8909010887145996,-0.3391261696815491,0.5779778361320496,-0.383709579706192,1.7516722679138184,1.8591123819351196,-0.5810636878013611,1.803072214126587,-1.447016954421997,0.5466358661651611,-2.5187182426452637,1.1811171770095825,-0.7491997480392456,-2.1430773735046387,0.09027693420648575,-0.2068956047296524,0.5656814575195312,1.4336073398590088,0.3688766658306122,0.4040546119213104,-1.2219640016555786,0.717975914478302,-0.3743969798088074,-1.3982905149459839,1.479703426361084,-0.6309107542037964,-0.5935310125350952,0.48153558373451233,0.6966659426689148,2.264061212539673,0.755241870880127,1.0633759498596191,0.3785521388053894,1.9676257371902466,1.006498098373413,0.03060535155236721,-0.3772643804550171,-0.5836594104766846,-1.3772739171981812,0.6585448384284973,0.5250750780105591,-0.26210206747055054,-1.837412714958191,-1.057701587677002,0.8293111324310303,-0.4974590539932251,1.9738222360610962,0.06082967296242714,0.23976625502109528,0.8239054679870605,-3.240607261657715,-0.07543712109327316,1.2102328538894653,0.3455529510974884,-1.874242901802063,0.5184330940246582,0.11834357678890228,-0.0009063382749445736,-0.7654544115066528,-2.2443313598632812,-1.6405622959136963,2.5180747509002686,1.4183483123779297,-2.448685646057129,-0.1681075096130371,0.7673214077949524,-0.11980337649583817,0.14166362583637238,1.665135145187378,0.07175244390964508,0.44481900334358215,-0.3914017677307129,2.3363490104675293,0.6016189455986023,-1.5783181190490723,-0.7527598142623901,0.07098902761936188,0.8817041516304016,-0.05597981438040733,1.2405623197555542,-0.724586546421051,-1.5907810926437378,-0.5803632736206055,-0.44723331928253174,1.858721137046814,-1.9519718885421753,-2.7938458919525146,-3.7039248943328857,0.9091761112213135,-2.988079071044922,-0.41915279626846313,-1.9002093076705933,-0.335700660943985,-0.8083861470222473,-0.6979234218597412,0.9328327178955078,-0.016079597175121307,0.17739254236221313,-0.4355170428752899,0.028826965019106865,-0.20197045803070068,-0.5971226692199707,0.8006300330162048,-0.8911218643188477,1.2780585289001465,0.13872438669204712,-0.0531059205532074,0.6746158003807068,0.6597569584846497,-0.003226800821721554,-0.16393926739692688,0.23827260732650757,-1.752913236618042,4.0452070236206055,1.0111665725708008,-1.3946400880813599,3.047407865524292,1.1945863962173462,1.4205971956253052,2.0984833240509033,0.5829576849937439,2.885817766189575,-1.1371934413909912,0.2968272864818573,0.5829377770423889,-1.8607137203216553,-4.351961135864258,-1.0438851118087769,0.7376697659492493,0.021413160488009453,1.234144687652588,0.23030182719230652,-0.05431271344423294,0.7283376455307007,-0.518787145614624,-0.5816603302955627,0.8475353121757507,-0.6827455759048462,-0.347784161567688,-0.38604193925857544,0.14540979266166687,-0.5434102416038513,-0.04165234416723251,-0.23274853825569153,1.3072700500488281,-0.7836993336677551,-0.9927929639816284,-0.505669355392456,1.247651219367981,1.2286651134490967,-0.35764947533607483,-0.2852151393890381,1.7149429321289062,1.518424153327942,-0.10778088867664337,0.05759015679359436,-1.478318452835083,-0.7523629665374756,-2.7456045150756836,1.9229174852371216,0.4649411141872406,0.053841788321733475,-1.1531643867492676,0.4905705153942108,0.4047795832157135,-0.27786481380462646,0.17588871717453003,1.0938674211502075,-1.3971977233886719,-0.4236825406551361,-0.25929221510887146,1.2779898643493652,-0.8703174591064453,-5.200152397155762,2.852050304412842,4.020532131195068,-2.9031565189361572,-2.882303476333618,-1.0754426717758179,-1.9754536151885986,0.32238849997520447,0.4989476501941681,0.266885370016098,-1.0903233289718628,1.5014013051986694,3.13861346244812,1.0988986492156982,3.110936164855957,-2.5707509517669678,0.8121857047080994,-1.2534812688827515,-0.10969311743974686,0.736309826374054,-3.0084996223449707,-1.1328823566436768,3.0558784008026123,-1.9442081451416016,-0.3283441960811615,-2.2434115409851074,3.94718337059021,1.3126887083053589,-0.16224831342697144,2.8575174808502197,-0.6404052972793579,-3.0075061321258545,3.320751428604126,2.259974718093872,5.245545387268066,-2.1466102600097656,-1.7887428998947144,-1.4751229286193848,-0.7528519034385681,-1.5229641199111938,-1.4036214351654053,-0.9954417943954468,-0.7093955874443054,-0.003347368910908699,-1.9643806219100952,-0.10395034402608871,0.2456154227256775,0.0018532166723161936,0.0456993542611599,1.4392430782318115,-0.8063753247261047,0.5937638282775879,-1.3425118923187256,-1.2109932899475098,0.21228843927383423,0.5903429985046387,3.103219747543335,-0.6541422605514526,2.08133602142334,0.7061473727226257,-0.520842432975769,-3.341362953186035,0.5539984703063965,2.335737943649292,0.30867359042167664,2.7862048149108887,-0.8041059970855713,0.46408140659332275,0.8939563632011414,0.10651098936796188,-1.6655890941619873,1.6308132410049438,-1.0158953666687012,-3.8984627723693848,-2.0402958393096924,1.2496589422225952,2.287332057952881,-0.25752997398376465,0.9779503345489502,0.5429229140281677,0.9898191094398499,-1.0784752368927002,0.18977510929107666,1.5622730255126953,1.0261601209640503,-1.73432195186615,1.9214247465133667,-0.6583094596862793,-0.10929006338119507,-0.5417101979255676,-0.782288670539856,-0.7729892134666443,-1.068467378616333,-2.222430467605591,0.500739336013794,3.6165153980255127,-2.214573860168457,0.37618008255958557,-1.273253083229065]},"forgetBias":{"rows":20,"columns":1,"weights":[0,0,0,0,0,0,0,0,0,0,0,0,0,0,0,0,0,0,0,0]},"outputMatrix":{"rows":20,"columns":33,"weights":[1.2884684801101685,0.4535043239593506,-1.4116929769515991,-2.3657500743865967,0.1967667192220688,0.9319535493850708,2.424232006072998,-1.7387471199035645,-0.017524253576993942,-1.0049670934677124,-0.14138218760490417,-0.290584921836853,2.5409820079803467,3.349109172821045,-0.5144720077514648,1.0189404487609863,-0.7003713846206665,0.13497047126293182,4.626872539520264,2.0382487773895264,1.8993663787841797,0.7055613994598389,0.9698543548583984,-2.6801469326019287,-0.9288289546966553,-1.5263007879257202,1.485918641090393,-1.9408966302871704,-2.6173202991485596,1.220879316329956,-1.96729576587677,2.4717342853546143,-0.2988453209400177,0.10285297781229019,-0.937879204750061,0.18054266273975372,-0.9024189710617065,0.766167163848877,2.2137081623077393,4.19588041305542,0.6730086207389832,0.48474788665771484,0.2294110804796219,-1.3795149326324463,-1.2160636186599731,1.4746898412704468,2.053525924682617,-0.19805479049682617,-1.1399669647216797,-0.8389724493026733,0.8317540884017944,0.6876934766769409,-1.0430713891983032,-0.1402057260274887,-3.2574117183685303,0.7096226215362549,-3.0305593013763428,-0.453762412071228,0.22069919109344482,0.22378437221050262,-0.3892500400543213,-0.49733680486679077,3.8072235584259033,1.7773642539978027,-0.23779119551181793,-0.0993146002292633,-1.0991815328598022,1.3359434604644775,-0.3341905474662781,-3.3930656909942627,0.8627347350120544,0.3936321437358856,-1.6733789443969727,-3.0679924488067627,-0.7988746762275696,-0.2585861086845398,-0.048204340040683746,-2.202411651611328,-0.22450101375579834,3.81744122505188,2.0656301975250244,-0.1128428503870964,-2.727346658706665,1.5030032396316528,0.612713634967804,0.9218785166740417,0.06302359700202942,-2.7140583992004395,-2.069840908050537,-1.382940649986267,1.1289945840835571,-2.4447243213653564,1.6824350357055664,-2.3934473991394043,0.5627393126487732,2.280062675476074,-2.0220983028411865,-1.9629758596420288,-1.162287950515747,2.574787139892578,-1.2046681642532349,-2.1569862365722656,-0.5939787030220032,-1.09016752243042,1.1201045513153076,-0.044530678540468216,1.1291316747665405,0.834372878074646,-1.2545864582061768,-0.43886876106262207,2.6926865577697754,1.1071840524673462,1.7344634532928467,0.9205580949783325,-1.8776614665985107,0.14184917509555817,3.8308258056640625,1.898013949394226,-0.36432039737701416,-0.3773975670337677,1.8311827182769775,-0.8119543790817261,-1.1984132528305054,0.8844832181930542,-1.6192737817764282,1.2762240171432495,0.47340357303619385,-2.4174628257751465,0.6380823850631714,-0.31321460008621216,-1.6220388412475586,-0.08026044070720673,0.4669019877910614,-0.7793914079666138,1.3431886434555054,0.5278695821762085,1.8154475688934326,-0.5313134789466858,0.244423508644104,1.6683907508850098,-0.4539744257926941,-0.5261081457138062,-0.16022242605686188,-1.0194542407989502,2.0828206539154053,-1.4822325706481934,-0.7952398657798767,1.560470700263977,-0.12950767576694489,0.8689979910850525,-1.6061396598815918,0.5243437886238098,-0.587029218673706,-0.0844896137714386,2.089827537536621,-1.5218617916107178,-1.8903379440307617,-2.84718656539917,-1.3798342943191528,-1.2370951175689697,-2.6576437950134277,-1.8053191900253296,2.0628788471221924,-0.3093012273311615,1.774381160736084,-0.3119552433490753,2.6775920391082764,1.43854820728302,-1.5116957426071167,-1.560181975364685,0.08631410449743271,-1.0693638324737549,-1.542907953262329,1.5314559936523438,1.472198486328125,1.0070948600769043,0.3175208866596222,-1.0586568117141724,2.1356706619262695,3.9843573570251465,0.3012844920158386,2.729858160018921,-0.6166545152664185,1.377120018005371,-1.6427761316299438,-0.11598993837833405,2.601945161819458,-0.32919761538505554,-0.7798927426338196,3.7574000358581543,0.3960215747356415,-0.6488021612167358,3.008384943008423,2.3757903575897217,-1.4526665210723877,1.6086546182632446,0.8615658283233643,-0.7657936811447144,0.08247420191764832,-1.1922645568847656,-1.06169593334198,0.5166217088699341,-1.0249274969100952,-0.7924778461456299,-0.6321713328361511,-0.1789933741092682,-2.0636472702026367,-1.1210715770721436,0.9815833568572998,1.2895898818969727,-0.7820329070091248,-0.29718106985092163,-0.9297249913215637,-1.4099445343017578,-1.0663940906524658,-0.5174843668937683,-0.5613232851028442,1.9443068504333496,1.94326913356781,-0.47920575737953186,-0.20655329525470734,3.300307035446167,-0.25568056106567383,1.8825533390045166,2.1733903884887695,-1.4351617097854614,0.8479113578796387,0.32810157537460327,-0.3111596405506134,1.4412068128585815,1.3771469593048096,-0.6636620163917542,0.484407901763916,-0.6737116575241089,0.7103820443153381,-1.861904501914978,-1.0968226194381714,-0.9467424154281616,0.30065712332725525,-1.5009946823120117,-2.231642007827759,0.9883790612220764,0.6183564066886902,-1.6632851362228394,-0.1252400428056717,-0.8644139170646667,-2.214231491088867,-0.7248376607894897,-2.6196446418762207,-2.459857940673828,1.8891721963882446,1.743686318397522,0.48616862297058105,0.8743506669998169,2.2457833290100098,-0.16239392757415771,2.672640323638916,1.7401753664016724,-2.768488645553589,0.21208110451698303,0.3313472270965576,1.3768151998519897,-0.06127719581127167,1.2895045280456543,-0.4115203022956848,-0.5489420890808105,2.6362650394439697,-1.8903695344924927,0.7034932374954224,-0.007445924915373325,-1.314459204673767,-0.7710236310958862,-1.3716741800308228,0.0712619349360466,1.2019147872924805,-0.6027976870536804,0.5001516342163086,0.019457204267382622,0.8680601716041565,1.3586422204971313,-3.6817262172698975,0.4413619637489319,-0.18772047758102417,0.7091757655143738,2.4807183742523193,-1.6712040901184082,2.3402605056762695,-1.7318214178085327,0.5841583013534546,-2.2069315910339355,-1.3766608238220215,-1.6876765489578247,-0.5043439865112305,-0.5239721536636353,-0.8842428922653198,1.7856866121292114,-0.7245749235153198,1.3145627975463867,-0.3546714782714844,0.5506483316421509,0.6829150915145874,-1.8588263988494873,2.7003114223480225,-0.9182571768760681,1.987532377243042,0.9977093935012817,0.1854235976934433,-1.5296248197555542,1.407666563987732,-0.9067407250404358,1.3277848958969116,0.7901577353477478,-1.8631925582885742,-1.5539634227752686,1.4741829633712769,1.7167985439300537,0.5914714932441711,2.147035837173462,1.1198322772979736,-2.0128023624420166,-2.9993157386779785,-0.17814607918262482,-0.9644228219985962,-1.0910725593566895,-1.0265337228775024,-0.5977867841720581,2.5505831241607666,0.7998223304748535,-0.477061927318573,-0.42340484261512756,0.8371705412864685,-0.6942707300186157,-0.47861653566360474,0.5823379755020142,-2.243933916091919,-0.6683790683746338,-0.8815047144889832,1.887686014175415,1.0962194204330444,0.5460224151611328,-0.5426514148712158,-1.256026268005371,-2.078794240951538,0.2595735192298889,-0.5756345987319946,-0.8001776337623596,0.5933720469474792,-0.5279420018196106,1.0079662799835205,0.10030331462621689,0.5281879901885986,2.5311431884765625,-0.6058721542358398,-3.50111985206604,-0.29692140221595764,0.4547969400882721,-1.5011595487594604,0.7833641767501831,1.4166340827941895,1.598228931427002,-1.7834341526031494,0.9110146164894104,1.5201691389083862,-0.7984868288040161,1.6542032957077026,2.156367301940918,-0.7642691135406494,2.458524465560913,-0.4773046374320984,1.9297598600387573,-1.5540426969528198,0.44516390562057495,2.368814468383789,-0.42698827385902405,-0.05307742580771446,1.5662342309951782,0.15733206272125244,1.935084581375122,2.6202011108398438,0.8936220407485962,0.8600823283195496,0.3017783463001251,1.0228043794631958,-0.0701526626944542,-2.1708850860595703,0.5827276706695557,-0.21786996722221375,0.4260525107383728,-0.7141890525817871,-1.183762788772583,0.591234028339386,0.8847894668579102,2.0178868770599365,-1.1607098579406738,-0.5046590566635132,0.5396345853805542,1.8553553819656372,-1.6393508911132812,0.5054983496665955,0.8790744543075562,0.463489294052124,1.205590009689331,0.3183017373085022,0.8192490339279175,1.3631006479263306,-2.0568184852600098,-0.29121074080467224,2.7913029193878174,1.8881595134735107,1.576379418373108,-0.7865018844604492,-2.576239585876465,0.6940661668777466,3.020267963409424,2.539912462234497,0.7977728843688965,0.07373254001140594,2.185922622680664,-1.245675802230835,-1.1705050468444824,-0.06604931503534317,-1.213032841682434,1.6350314617156982,-0.9195464849472046,-0.17963454127311707,-0.9075471758842468,-0.17197144031524658,-0.9677236080169678,0.6376974582672119,0.4455450475215912,-0.020304424688220024,1.0680451393127441,1.0447802543640137,0.00991313811391592,0.031046157702803612,2.4366843700408936,1.9361556768417358,3.0047855377197266,-0.941774308681488,-0.01947939023375511,-1.0515103340148926,0.7708244919776917,-0.4699011743068695,0.2683207094669342,1.5220330953598022,1.031574010848999,1.8419679403305054,-0.18053299188613892,-1.5030999183654785,0.9726697206497192,0.10955295711755753,-0.6220574378967285,-3.21628999710083,0.031110920011997223,-1.5950247049331665,-1.622085690498352,-0.2659452557563782,-0.4475657343864441,0.5089832544326782,-1.4494391679763794,-0.3908710479736328,0.8352002501487732,1.5790852308273315,-1.323887825012207,-3.0884296894073486,3.579920530319214,0.5730786323547363,-0.051266156136989594,1.2949262857437134,2.4233007431030273,-0.7319607138633728,-1.0580500364303589,0.5113925337791443,-0.43666091561317444,2.045520067214966,0.3573223352432251,-2.385457992553711,1.966430902481079,-0.9878303408622742,-1.5771362781524658,-0.6571565270423889,0.6126354336738586,3.1891167163848877,-0.5597116351127625,0.3867950141429901,0.7822219133377075,-3.4025070667266846,0.19456684589385986,1.449149250984192,-2.038558006286621,-3.5591413974761963,0.5501185059547424,-1.4873061180114746,1.398611307144165,3.0572776794433594,2.6654837131500244,-1.7424038648605347,-2.7711615562438965,2.611109495162964,-0.060665786266326904,-0.23180058598518372,-0.9458867907524109,1.6583657264709473,3.1758804321289062,0.8970747590065002,-0.42604392766952515,2.030320167541504,-0.8999119400978088,0.5440109968185425,-0.53303062915802,-0.27492380142211914,-1.3867086172103882,-0.2806713283061981,1.4066412448883057,2.933166980743408,-0.08009399473667145,1.777666687965393,-2.9969730377197266,0.19931738078594208,-1.7416248321533203,-1.308950424194336,-0.5065625905990601,-0.4829404056072235,0.6098944544792175,0.577837347984314,-1.8250267505645752,-0.8945796489715576,3.091709852218628,2.6909735202789307,-1.8070728778839111,-3.3848721981048584,2.229726552963257,1.0590243339538574,-0.10355664044618607,0.30690595507621765,1.3192812204360962,-0.311852365732193,-0.5442039370536804,-0.34248197078704834,1.4198918342590332,0.5373735427856445,0.6836044192314148,-0.46813908219337463,-1.837570071220398,0.38875246047973633,-0.056146878749132156,1.4567838907241821,3.16896390914917,1.7185522317886353,2.5063743591308594,1.7744767665863037,1.12173593044281,-0.7793846726417542,-0.10436435788869858,1.8576788902282715,0.34776219725608826,-2.48726224899292,-1.2952786684036255,1.508949875831604,-0.6474251747131348,2.2847421169281006,-0.9037487506866455,-1.3662147521972656,-1.1944137811660767,-1.9041682481765747,0.4594314992427826,-0.9203517436981201,-1.4222266674041748,0.047306664288043976,1.0164117813110352,-0.3137248158454895,-0.5572383999824524,-3.204693078994751,0.4716328978538513,0.9927111864089966,0.48434072732925415,1.1986178159713745,-1.8566455841064453,-1.7817116975784302,-1.6108781099319458,2.139403820037842,-1.4412767887115479,-1.025002121925354,0.6822692155838013,2.44826602935791,-1.9073411226272583,-1.4523190259933472,0.9290460348129272,0.9182236194610596,-0.34527117013931274,-1.7500065565109253,1.481777548789978,-1.9527965784072876,-0.115857794880867,0.3542286455631256,0.9690566062927246,1.0702635049819946,0.7492666840553284,1.1524654626846313,-0.28717485070228577,3.0277249813079834,2.0546720027923584,1.8378398418426514,1.5371679067611694,-0.5907224416732788,-0.814592719078064,4.005016803741455,0.31538107991218567,-0.5627173185348511,2.5853965282440186,-0.8331395983695984,1.7225615978240967,1.8431615829467773,0.9856016039848328,1.0702592134475708,-1.6336971521377563,-1.829784870147705,-3.034837484359741,-0.25082799792289734,-2.708261728286743,-0.057008277624845505,-0.8661996722221375,-1.50286865234375,1.154843807220459,-1.894950270652771,-0.5649910569190979,0.1422768533229828,0.43777647614479065,-0.7197397947311401,0.9249111413955688,-3.162381649017334,-0.7428656816482544,-1.0858346223831177,0.9436540007591248,-1.0292330980300903,1.4607234001159668,-2.701359510421753,-1.9265085458755493,-1.6998039484024048,0.1520189344882965,-0.6740426421165466,0.6110422015190125,0.17562495172023773,0.17721132934093475,-0.3135918378829956,1.1195098161697388,-0.9855592846870422,-1.0781935453414917,2.6023712158203125,2.049177408218384,-0.06983856856822968,-1.4501023292541504,-0.1535024642944336,-0.8555828332901001,1.0314797163009644,-0.19645385444164276,0.1539657562971115,0.9370187520980835,-1.1558127403259277,-1.7416369915008545]},"outputHidden":{"rows":20,"columns":20,"weights":[0.7863983511924744,-0.03919241577386856,-3.1043214797973633,-0.6207106709480286,1.9896831512451172,-1.7332358360290527,-0.676706075668335,2.03741455078125,0.06632357090711594,0.14102493226528168,-2.4689977169036865,-1.537672519683838,-0.8054851293563843,-2.1685848236083984,-0.8196730017662048,-0.7901596426963806,1.3371690511703491,0.9636825323104858,2.2010066509246826,0.6642197370529175,0.2501775622367859,-1.104643702507019,0.7722555994987488,3.7283854484558105,-0.16006731986999512,-1.3628381490707397,0.22714117169380188,1.4569398164749146,3.1034185886383057,1.686757206916809,1.6150084733963013,-1.1919631958007812,3.327897787094116,-0.478932648897171,-0.0944233164191246,-1.2627838850021362,-0.5066336393356323,0.7821055054664612,1.7717375755310059,-0.8835302591323853,-1.2228729724884033,-2.1422979831695557,0.10793277621269226,-1.4055665731430054,-2.6848366260528564,-0.3795052766799927,-2.87640118598938,-1.9313558340072632,0.9896520972251892,2.1038832664489746,-0.14711876213550568,0.4325580298900604,-1.1088932752609253,-2.020334243774414,2.971888542175293,-0.22402267158031464,-2.2631404399871826,0.74229496717453,2.6383721828460693,-1.054254412651062,1.2187607288360596,0.5653277635574341,-1.0406968593597412,-0.2634550631046295,0.037856731563806534,0.552692174911499,-0.3075743019580841,-0.2448999583721161,0.20147104561328888,0.7023285031318665,0.37327760457992554,0.032910000532865524,-1.7097594738006592,-1.288216471672058,1.3743034601211548,0.19635115563869476,1.036913514137268,1.5727851390838623,-1.1871055364608765,-0.9977436661720276,-0.2473549246788025,2.031965732574463,-0.7570741176605225,-0.2567305862903595,2.6932663917541504,-1.042458415031433,0.00456809950992465,-2.5064809322357178,2.5069572925567627,3.610685110092163,-0.07511012256145477,0.8765977621078491,1.8562982082366943,-3.6301021575927734,-3.060421943664551,-2.8886866569519043,3.3796193599700928,-0.9914349317550659,1.8382041454315186,-1.0331929922103882,-0.48608261346817017,-3.633122205734253,-0.32463696599006653,-0.4585705101490021,-0.09039685130119324,-3.17637300491333,0.5919411182403564,0.34557801485061646,-2.6169865131378174,-3.8007454872131348,-0.14863622188568115,1.4572358131408691,0.6258206963539124,-1.2162790298461914,-0.0001869563857326284,-0.9925393462181091,0.8386961221694946,0.4358658194541931,-1.757533311843872,3.032862901687622,2.3658390045166016,-1.3753445148468018,-2.443376064300537,-0.5727306604385376,-0.1884971261024475,-3.579011917114258,-3.984250545501709,2.0193400382995605,-4.6211113929748535,1.656221628189087,1.0950520038604736,-8.480634689331055,3.587002992630005,-0.7806280851364136,-0.9815142154693604,1.5483318567276,-4.234262943267822,6.374320983886719,0.6814742088317871,3.4601058959960938,-0.2681931257247925,-1.8181970119476318,1.1796391010284424,0.8266178965568542,-2.4034016132354736,0.6475938558578491,-1.4782079458236694,3.886752128601074,0.12819544970989227,-0.49415311217308044,1.5023140907287598,-0.39995473623275757,-1.127429485321045,1.6419528722763062,-1.3025670051574707,3.299057722091675,-1.876643419265747,1.3416383266448975,-2.3390793800354004,2.89239501953125,-1.304372787475586,-1.0382850170135498,1.5278044939041138,-0.013380640186369419,-2.1484220027923584,-1.5575084686279297,-0.3443675637245178,1.605465292930603,2.6595282554626465,-2.6491973400115967,-0.20896556973457336,-1.0809378623962402,0.3438822627067566,-0.14433017373085022,0.292201429605484,-2.844670534133911,0.5952879786491394,0.6780941486358643,0.9713018536567688,-0.19553537666797638,-2.86482572555542,0.09998638182878494,1.0748416185379028,-1.5788060426712036,0.5531373620033264,0.6695461273193359,1.2838541269302368,1.5386701822280884,-0.15311665832996368,-1.2678251266479492,-0.0726194903254509,2.264636993408203,0.43023186922073364,-3.1098945140838623,-0.8662852644920349,0.1264077126979828,0.19517803192138672,-0.9160810708999634,-1.5257903337478638,-1.1267852783203125,5.664145469665527,1.0408812761306763,-3.303805351257324,-0.19196677207946777,0.13181522488594055,-4.400265693664551,-1.492493987083435,2.0918049812316895,3.430328369140625,-2.4791927337646484,-3.0256035327911377,0.09714367240667343,0.6754655241966248,4.07375955581665,4.446378231048584,-1.8127070665359497,0.6797723174095154,0.8823299407958984,-0.03717368096113205,0.8194504380226135,-1.3489415645599365,2.7931766510009766,-0.5317050218582153,-0.7251306772232056,0.6313064694404602,-1.5669251680374146,-0.24915094673633575,1.2959691286087036,-0.3805994391441345,0.18379826843738556,0.35078102350234985,-1.7351943254470825,0.3463607728481293,-0.32763999700546265,-2.1777055263519287,-2.5332329273223877,3.2019519805908203,0.8345392346382141,-0.1845913678407669,3.058583974838257,0.8312234878540039,-1.0055394172668457,0.6219359040260315,-0.20769645273685455,0.07045329362154007,1.2606614828109741,-0.10506348311901093,-0.72977215051651,0.7943993210792542,-0.43780267238616943,0.5969677567481995,1.279774785041809,-0.05316627770662308,1.077846884727478,0.9011254906654358,-0.9164800643920898,-1.5540484189987183,0.3880617022514343,-0.8568500280380249,-1.08879554271698,-2.5015878677368164,2.9917609691619873,3.9361660480499268,-4.127645492553711,2.7016944885253906,1.8382389545440674,1.2559866905212402,0.4603244662284851,-1.7416802644729614,-1.4456758499145508,-4.507438659667969,2.3676469326019287,2.8805246353149414,-4.738654613494873,-1.6651865243911743,-3.6452324390411377,1.3558040857315063,-3.5633938312530518,2.815357208251953,0.7324091792106628,-0.3893207311630249,-0.3504588305950165,1.837157130241394,2.018371343612671,-1.1581286191940308,0.021826187148690224,-3.3388140201568604,0.22660306096076965,0.9166767597198486,3.9152331352233887,0.6093657612800598,-1.2931303977966309,0.06059984862804413,1.718307614326477,2.038184642791748,-0.3675689399242401,-2.086399793624878,-1.768786907196045,0.10178779065608978,-2.1299126148223877,-0.9342018961906433,-0.820833683013916,3.939410924911499,1.862844705581665,0.052775390446186066,2.5536868572235107,1.620176911354065,2.405791759490967,1.085750699043274,0.1362931728363037,1.3218636512756348,1.0063246488571167,1.6941231489181519,3.2723803520202637,-2.3306448459625244,-0.27746543288230896,1.432117223739624,-1.5932506322860718,-1.5405752658843994,-2.413098096847534,2.2236602306365967,0.6465731263160706,-1.6972277164459229,3.893045663833618,-2.270869731903076,1.456207513809204,-1.0997885465621948,-1.1886969804763794,4.760391712188721,2.690197229385376,2.0117266178131104,-0.3200381398200989,-1.401841402053833,1.8689641952514648,3.780604600906372,0.2982766330242157,-1.6340199708938599,-1.4961941242218018,-0.8547649383544922,0.027915149927139282,-1.2103402614593506,0.24557144939899445,-1.4757963418960571,-0.25744083523750305,0.11492712795734406,0.06991690397262573,-0.02323918417096138,0.4255961775779724,0.8716786503791809,-0.6774945259094238,-1.4087443351745605,-0.668257474899292,0.09871584922075272,0.579300045967102,-2.260772466659546,0.1359461545944214,-0.0433955192565918,0.5459241271018982,1.2412521839141846,0.9644556641578674,1.1718170642852783,0.40038520097732544,-2.4149632453918457,-1.8487118482589722,1.3521647453308105,-0.2601853609085083,-0.7156816124916077,1.1110336780548096,0.7984046936035156,2.482696056365967,0.9131655097007751,-0.45917484164237976,-1.5759034156799316,-1.5356887578964233,-1.3849674463272095,0.3778255581855774,-0.6266766786575317,1.149573564529419,-0.4652782082557678,1.1508992910385132,-1.480891466140747,3.257996082305908,0.7241339087486267,-4.831963539123535,4.074178218841553,-1.4127302169799805,0.011914716102182865,1.2668536901474,0.23863531649112701,1.2691324949264526,-2.700732707977295,-3.399106025695801,1.3397623300552368,-6.277255058288574,-5.443965435028076,-0.6664139628410339,8.13329792022705,-0.8909661173820496,3.2792575359344482,1.850915551185608]},"outputBias":{"rows":20,"columns":1,"weights":[-0.8607445955276489,-0.5240155458450317,-2.94936466217041,-0.1850249320268631,-0.8560831546783447,1.5372240543365479,-0.19583167135715485,1.2942482233047485,-0.13572680950164795,-0.2127920240163803,-0.868588387966156,-1.7002308368682861,-0.9590779542922974,-0.9144668579101562,-0.8532958030700684,-0.7798129916191101,-1.7783631086349487,-1.1697523593902588,0.08712011575698853,0.9952908754348755]},"cellActivationMatrix":{"rows":20,"columns":33,"weights":[0.06741991639137268,-0.10421840846538544,0.19338271021842957,-0.7272634506225586,-2.592730760574341,0.8722327947616577,-0.46518474817276,0.3573123514652252,0.014720608480274677,-0.9089629650115967,0.4694530665874481,-1.012594223022461,-0.9879509210586548,-0.40158629417419434,0.7473947405815125,-0.2998357117176056,-0.6829465627670288,-1.509182333946228,1.5247265100479126,-0.8704002499580383,2.188991069793701,-0.5580514073371887,-0.0016907660756260157,0.3420904874801636,-0.16058583557605743,0.4671177864074707,-0.12711550295352936,-1.1853581666946411,-0.739828884601593,0.7030723094940186,-0.2146068513393402,0.7267868518829346,-0.4296870529651642,-1.3379496335983276,-0.18040910363197327,-0.9317511916160583,-1.0432758331298828,-1.0737383365631104,1.5199087858200073,0.1567230075597763,-1.3404663801193237,-1.8028185367584229,0.9963924288749695,-0.48192498087882996,-1.4833135604858398,-0.36563897132873535,1.3008978366851807,0.11925821006298065,-0.7690448760986328,-0.1758679896593094,-0.4182022511959076,0.13552092015743256,0.4210142195224762,0.31452476978302,-1.6244854927062988,-1.9641740322113037,0.07706961780786514,1.3736175298690796,1.1672009229660034,0.748069703578949,-0.6597758531570435,2.3229310512542725,0.8080862760543823,-0.8366346955299377,0.9654800295829773,0.39610424637794495,-1.0138728618621826,-0.15283209085464478,-0.4440406262874603,-1.0065957307815552,1.7001103162765503,0.21065004169940948,-0.7779250741004944,-1.253187656402588,0.3582460880279541,0.5900123715400696,-0.3706006705760956,-1.082223653793335,-1.1908491849899292,-0.4121510684490204,-0.8228172063827515,0.37399327754974365,0.8708692789077759,1.2179697751998901,-1.836341381072998,-0.5206764936447144,-2.9022610187530518,1.5648828744888306,0.7428224086761475,-0.28312793374061584,0.28745925426483154,-0.2980784475803375,-0.37173253297805786,2.633100986480713,2.288086414337158,-0.8327644467353821,0.358365923166275,-1.6274664402008057,-0.5191076993942261,2.1123955249786377,0.9449459314346313,-1.1624834537506104,2.585669994354248,0.9746267795562744,0.07997559756040573,0.9739014506340027,1.3542594909667969,0.25304827094078064,0.5353386402130127,-0.012282186187803745,1.4516457319259644,1.722882628440857,0.34776952862739563,-1.6508368253707886,-1.0284194946289062,1.5693665742874146,0.24504514038562775,0.530883252620697,1.5509676933288574,0.46542567014694214,0.1823594719171524,0.4362051784992218,0.38629162311553955,-0.3579392731189728,0.0606461726129055,-0.6778668165206909,-0.8836954832077026,-1.9952635765075684,-0.3107772171497345,-0.2532881498336792,-1.1407699584960938,1.6866756677627563,-2.3254952430725098,1.0045130252838135,0.8717867732048035,-0.4582902491092682,1.4031801223754883,-0.08313946425914764,-0.9989629983901978,-0.3901583254337311,-0.7681182026863098,0.3657129108905792,0.7086792588233948,-0.37851688265800476,0.6712287664413452,-1.5919077396392822,0.6842118501663208,1.1278060674667358,1.5867608785629272,0.8052505850791931,-0.9348776936531067,-2.0146372318267822,-0.3232552707195282,-0.5086525678634644,0.11349698901176453,0.524864137172699,0.935494065284729,0.8088891506195068,-0.4638731777667999,1.0865284204483032,0.7981418371200562,-0.7407643795013428,0.07342053949832916,0.26924043893814087,-1.5767496824264526,0.11736436933279037,0.14042967557907104,-0.6526216864585876,-0.005192593205720186,-0.7396159172058105,-0.6860924959182739,-1.133162021636963,0.45209789276123047,0.46600785851478577,-0.07551348954439163,0.9388774037361145,-0.3394082486629486,-0.9894617199897766,-1.1425741910934448,0.8510597944259644,-0.21027173101902008,1.7709542512893677,-1.4065029621124268,-1.0309022665023804,-0.8023385405540466,-0.7145392894744873,1.7876977920532227,-0.37874773144721985,0.9772404432296753,0.12196825444698334,0.8430125117301941,-0.04521086439490318,1.0826181173324585,1.9730384349822998,-1.9894405603408813,1.2444610595703125,-0.16274677217006683,-0.1613970547914505,-1.1770848035812378,0.4704796373844147,0.9227783679962158,-2.806833267211914,-0.003287355648353696,0.20104236900806427,1.4154101610183716,-2.1530513763427734,-0.8015052676200867,0.043953295797109604,-2.391658306121826,-1.3748055696487427,0.08831269294023514,0.5052297711372375,1.1095898151397705,1.7894583940505981,0.12016191333532333,0.972686767578125,-1.5105197429656982,-1.8041975498199463,-1.5376322269439697,0.8031012415885925,1.4600951671600342,-0.35517051815986633,-0.10781355947256088,1.0292145013809204,-1.2549278736114502,1.409782886505127,2.6698122024536133,1.1128724813461304,0.45136383175849915,0.4257006049156189,-0.7651246190071106,1.4687567949295044,-1.965325117111206,-3.7848079204559326,0.5280691385269165,0.3087086081504822,-1.549451231956482,-0.11279838532209396,0.34658655524253845,0.830809473991394,-0.1501157283782959,0.4429659843444824,0.9609882235527039,0.22710293531417847,0.11422339826822281,1.010414481163025,-1.8522318601608276,-0.5019848942756653,0.45125168561935425,-0.006141587160527706,2.0098867416381836,-1.9927794933319092,0.5430823564529419,-0.953872799873352,1.882260799407959,-0.4915882349014282,0.5366477370262146,1.5001405477523804,1.799092411994934,0.04264132305979729,-1.1878842115402222,-0.8652409911155701,-0.942098081111908,2.68044114112854,-0.6187494397163391,-0.1559121459722519,-0.025367142632603645,-0.33101093769073486,-0.7201510667800903,-1.2165918350219727,0.2432357370853424,0.13484737277030945,-1.8120076656341553,-1.1356313228607178,-0.31652534008026123,0.8325883150100708,-0.3234919011592865,-1.158393144607544,-0.0033142385073006153,-0.06777246296405792,-0.5962038040161133,1.5445232391357422,-0.9599358439445496,-0.04695671796798706,0.0859091654419899,0.043254390358924866,-0.4371212422847748,1.66719651222229,-0.3337682783603668,1.193556785583496,0.46901604533195496,-0.8616583943367004,1.7126513719558716,-0.8174349069595337,-0.7160515189170837,0.6757649779319763,0.562949538230896,0.43313348293304443,-0.20412445068359375,0.585757315158844,0.0203548651188612,-0.3420060873031616,0.6385782957077026,0.0373806394636631,1.3952032327651978,-1.2852935791015625,-0.2579101324081421,0.7729668021202087,-2.8496899604797363,-0.8954136371612549,-1.3586721420288086,-0.7852615118026733,-0.03422217071056366,-2.369725227355957,0.9455502033233643,-0.24842223525047302,-1.2691036462783813,2.107426166534424,-1.2997421026229858,-0.766279399394989,-0.06586018204689026,-0.45595526695251465,0.5326697826385498,0.05223507806658745,-1.6479178667068481,-1.5200647115707397,0.021306456997990608,0.45308917760849,1.911807894706726,-1.4917958974838257,1.1678106784820557,-1.4681137800216675,-0.37743064761161804,-0.45484811067581177,-1.818595290184021,2.0656180381774902,-1.1449494361877441,1.7374504804611206,0.5372801423072815,1.1636288166046143,-0.665001630783081,1.3110072612762451,-0.007097077090293169,0.39696455001831055,0.2819294333457947,0.13776886463165283,-1.4850680828094482,2.017486810684204,2.525803804397583,-0.06432151049375534,1.413456916809082,1.0732733011245728,0.6844065189361572,-1.5236742496490479,-1.1320884227752686,-1.0663036108016968,-0.7380977869033813,-1.5544168949127197,1.0087623596191406,3.31451678276062,-0.8627108931541443,-0.48776116967201233,0.48665186762809753,-0.4113757014274597,0.6345250010490417,-0.6610583066940308,-1.4590651988983154,0.21315281093120575,-1.2400622367858887,-0.8415146470069885,-2.229898452758789,-1.0486699342727661,-0.9487459063529968,-0.16133004426956177,0.25216957926750183,-0.7258639335632324,-0.5511735677719116,2.395526885986328,1.9496431350708008,0.06647659093141556,-0.2579424977302551,-1.1660871505737305,-0.026809081435203552,-1.3707314729690552,0.23769570887088776,-0.06317086517810822,1.0463712215423584,0.5844755172729492,0.9139259457588196,0.972550630569458,1.0018998384475708,2.5120418071746826,-0.41564834117889404,-0.5393884181976318,0.12111178040504456,-1.2183074951171875,0.17863690853118896,0.15496176481246948,-0.23235684633255005,-0.2440560907125473,-0.8023623824119568,1.3920334577560425,-1.3791567087173462,-2.0958352088928223,-0.09318548440933228,1.1103227138519287,0.5721903443336487,1.2137569189071655,-1.8132243156433105,1.3196136951446533,-0.4065978527069092,-1.403685450553894,1.014217734336853,-1.3679367303848267,1.1344481706619263,-0.260957270860672,0.24759447574615479,2.1569457054138184,-2.2074756622314453,-0.2739620804786682,1.1762791872024536,0.9974732398986816,-0.5785503387451172,0.15700562298297882,0.21115727722644806,0.9334704279899597,-1.0281835794448853,0.16000686585903168,-0.8832195997238159,0.4509377181529999,-0.7280867695808411,0.7578681111335754,1.0327670574188232,-0.0833478793501854,-0.5314147472381592,2.40663743019104,1.6872681379318237,1.7142720222473145,0.3359737992286682,0.7981488704681396,-0.44134077429771423,-1.0707917213439941,-0.47279977798461914,-0.281791627407074,-0.24643273651599884,0.44221121072769165,0.7394227385520935,-1.3419243097305298,-0.25822359323501587,-0.31051933765411377,-0.7169795632362366,-1.085152268409729,-0.31793802976608276,-0.1458754688501358,-2.299525499343872,-2.149935007095337,0.9851468205451965,-1.5341674089431763,0.580316960811615,-1.5385689735412598,-2.086374044418335,0.5742369890213013,0.3668041527271271,-1.21016526222229,1.4984172582626343,0.949204683303833,1.1340333223342896,-0.9627637267112732,1.0726592540740967,1.2425962686538696,1.3929595947265625,-1.379366159439087,-0.19914820790290833,-1.068935751914978,-0.02065880410373211,-0.5459843277931213,0.0643722265958786,1.5264546871185303,-0.7761467695236206,0.21050472557544708,0.09749972820281982,-0.4265691339969635,0.3256688416004181,-1.2956781387329102,2.5800585746765137,-0.05884866416454315,-2.3472847938537598,-1.6450568437576294,-0.22954364120960236,-1.0915230512619019,-0.7286185622215271,-0.8815472722053528,0.2815082371234894,-0.3370925784111023,0.6806681156158447,1.2450591325759888,0.24419564008712769,-0.9545303583145142,0.77900230884552,-0.975798487663269,-0.08603603392839432,-0.23814231157302856,0.8148766756057739,-0.8742382526397705,-0.7742326259613037,-1.3791335821151733,-0.7707798480987549,0.15579980611801147,0.4021961987018585,-1.4787819385528564,-0.1399894505739212,-1.9327377080917358,-1.485255241394043,1.6402339935302734,0.4501994252204895,3.6431074142456055,0.4391954839229584,1.2162761688232422,-1.635526418685913,-0.6526834964752197,0.5145342350006104,0.32187360525131226,-0.1819714903831482,-2.4794719219207764,1.429593563079834,-0.9743950366973877,1.9588135480880737,1.986243724822998,-2.703272581100464,1.4571120738983154,0.7296918034553528,-0.4652569591999054,1.0620591640472412,-1.411813497543335,0.400961309671402,-1.6909701824188232,-0.6395343542098999,0.018327679485082626,0.054816778749227524,-2.084233522415161,1.8789582252502441,-1.2376673221588135,1.1562578678131104,0.753216564655304,1.3793253898620605,-0.2938213348388672,-0.7583921551704407,-0.8455185294151306,-0.261729896068573,-0.6783374547958374,0.5638388991355896,0.5748295783996582,1.5225871801376343,-0.21472248435020447,-0.43095800280570984,-0.09868497401475906,-0.28069719672203064,0.292193204164505,2.2095344066619873,-0.2727024555206299,-0.5105177760124207,1.2380472421646118,-0.08897693455219269,-0.8793424963951111,2.2858614921569824,0.7109496593475342,0.4176282584667206,-0.3311600983142853,1.0845811367034912,0.08167150616645813,0.3229658603668213,0.47883370518684387,1.5574042797088623,-0.8006779551506042,-0.10210956633090973,-0.7365792393684387,-1.9486249685287476,-0.24996879696846008,0.9181299209594727,-0.06542475521564484,0.21960778534412384,-0.10220247507095337,-1.3294066190719604,-1.8210631608963013,0.2193136364221573,0.34381821751594543,1.1563652753829956,0.038230787962675095,-0.3345736563205719,-0.9472441077232361,0.2425026148557663,-0.760586678981781,-0.10425009578466415,1.7253985404968262,-0.10739019513130188,0.017712533473968506,-0.027934949845075607,0.441285640001297,1.0289732217788696,-1.5309315919876099,-0.17361143231391907,0.3258786201477051,0.7778134942054749,-0.3103196322917938,1.2657722234725952,-0.3197505474090576,-0.3887898921966553,-1.1704392433166504,0.22597233951091766,0.36969688534736633,1.0790470838546753,-0.42737364768981934,-1.5414423942565918,0.039391811937093735,-1.6659085750579834,-0.31189441680908203,0.5119565725326538,1.8913514614105225,-0.47750136256217957,0.20512765645980835,0.5784015655517578,0.6710783839225769,1.4886983633041382,-3.1920690536499023,0.7869618535041809,0.1638806313276291,0.13988453149795532,2.3198232650756836,-1.3166769742965698,-1.192335605621338,0.9185237288475037,-0.2756039500236511,1.2721940279006958,